{"learner":{"attributes":{"scikit_learn":"{\"_estimator_type\": \"regressor\"}"},"feature_names":[],"feature_types":[],"gradient_booster":{"model":{"gbtree_model_param":{"num_parallel_tree":"1","num_trees":"600"},"iteration_indptr":[0,1,2,3,4,5,6,7,8,9,10,11,12,13,14,15,16,17,18,19,20,21,22,23,24,25,26,27,28,29,30,31,32,33,34,35,36,37,38,39,40,41,42,43,44,45,46,47,48,49,50,51,52,53,54,55,56,57,58,59,60,61,62,63,64,65,66,67,68,69,70,71,72,73,74,75,76,77,78,79,80,81,82,83,84,85,86,87,88,89,90,91,92,93,94,95,96,97,98,99,100,101,102,103,104,105,106,107,108,109,110,111,112,113,114,115,116,117,118,119,120,121,122,123,124,125,126,127,128,129,130,131,132,133,134,135,136,137,138,139,140,141,142,143,144,145,146,147,148,149,150,151,152,153,154,155,156,157,158,159,160,161,162,163,164,165,166,167,168,169,170,171,172,173,174,175,176,177,178,179,180,181,182,183,184,185,186,187,188,189,190,191,192,193,194,195,196,197,198,199,200,201,202,203,204,205,206,207,208,209,210,211,212,213,214,215,216,217,218,219,220,221,222,223,224,225,226,227,228,229,230,231,232,233,234,235,236,237,238,239,240,241,242,243,244,245,246,247,248,249,250,251,252,253,254,255,256,257,258,259,260,261,262,263,264,265,266,267,268,269,270,271,272,273,274,275,276,277,278,279,280,281,282,283,284,285,286,287,288,289,290,291,292,293,294,295,296,297,298,299,300,301,302,303,304,305,306,307,308,309,310,311,312,313,314,315,316,317,318,319,320,321,322,323,324,325,326,327,328,329,330,331,332,333,334,335,336,337,338,339,340,341,342,343,344,345,346,347,348,349,350,351,352,353,354,355,356,357,358,359,360,361,362,363,364,365,366,367,368,369,370,371,372,373,374,375,376,377,378,379,380,381,382,383,384,385,386,387,388,389,390,391,392,393,394,395,396,397,398,399,400,401,402,403,404,405,406,407,408,409,410,411,412,413,414,415,416,417,418,419,420,421,422,423,424,425,426,427,428,429,430,431,432,433,434,435,436,437,438,439,440,441,442,443,444,445,446,447,448,449,450,451,452,453,454,455,456,457,458,459,460,461,462,463,464,465,466,467,468,469,470,471,472,473,474,475,476,477,478,479,480,481,482,483,484,485,486,487,488,489,490,491,492,493,494,495,496,497,498,499,500,501,502,503,504,505,506,507,508,509,510,511,512,513,514,515,516,517,518,519,520,521,522,523,524,525,526,527,528,529,530,531,532,533,534,535,536,537,538,539,540,541,542,543,544,545,546,547,548,549,550,551,552,553,554,555,556,557,558,559,560,561,562,563,564,565,566,567,568,569,570,571,572,573,574,575,576,577,578,579,580,581,582,583,584,585,586,587,588,589,590,591,592,593,594,595,596,597,598,599,600],"tree_info":[0,0,0,0,0,0,0,0,0,0,0,0,0,0,0,0,0,0,0,0,0,0,0,0,0,0,0,0,0,0,0,0,0,0,0,0,0,0,0,0,0,0,0,0,0,0,0,0,0,0,0,0,0,0,0,0,0,0,0,0,0,0,0,0,0,0,0,0,0,0,0,0,0,0,0,0,0,0,0,0,0,0,0,0,0,0,0,0,0,0,0,0,0,0,0,0,0,0,0,0,0,0,0,0,0,0,0,0,0,0,0,0,0,0,0,0,0,0,0,0,0,0,0,0,0,0,0,0,0,0,0,0,0,0,0,0,0,0,0,0,0,0,0,0,0,0,0,0,0,0,0,0,0,0,0,0,0,0,0,0,0,0,0,0,0,0,0,0,0,0,0,0,0,0,0,0,0,0,0,0,0,0,0,0,0,0,0,0,0,0,0,0,0,0,0,0,0,0,0,0,0,0,0,0,0,0,0,0,0,0,0,0,0,0,0,0,0,0,0,0,0,0,0,0,0,0,0,0,0,0,0,0,0,0,0,0,0,0,0,0,0,0,0,0,0,0,0,0,0,0,0,0,0,0,0,0,0,0,0,0,0,0,0,0,0,0,0,0,0,0,0,0,0,0,0,0,0,0,0,0,0,0,0,0,0,0,0,0,0,0,0,0,0,0,0,0,0,0,0,0,0,0,0,0,0,0,0,0,0,0,0,0,0,0,0,0,0,0,0,0,0,0,0,0,0,0,0,0,0,0,0,0,0,0,0,0,0,0,0,0,0,0,0,0,0,0,0,0,0,0,0,0,0,0,0,0,0,0,0,0,0,0,0,0,0,0,0,0,0,0,0,0,0,0,0,0,0,0,0,0,0,0,0,0,0,0,0,0,0,0,0,0,0,0,0,0,0,0,0,0,0,0,0,0,0,0,0,0,0,0,0,0,0,0,0,0,0,0,0,0,0,0,0,0,0,0,0,0,0,0,0,0,0,0,0,0,0,0,0,0,0,0,0,0,0,0,0,0,0,0,0,0,0,0,0,0,0,0,0,0,0,0,0,0,0,0,0,0,0,0,0,0,0,0,0,0,0,0,0,0,0,0,0,0,0,0,0,0,0,0,0,0,0,0,0,0,0,0,0,0,0,0,0,0,0,0,0,0,0,0,0,0,0,0,0,0,0,0,0,0,0,0,0,0,0,0,0,0,0,0,0,0,0,0,0,0,0,0,0,0,0,0,0,0,0,0,0,0,0,0,0,0,0,0,0,0,0,0,0,0,0,0,0,0,0,0,0,0,0,0,0,0,0,0,0,0,0,0,0,0,0,0,0,0,0,0,0,0,0,0,0,0,0,0,0,0,0,0,0,0],"trees":[{"base_weights":[-0E0,-5.358443E0,1.4558795E2,1.9103157E1,-1.9921743E1,2.0855052E2,7.1604904E1,-3.287731E1,2.742036E1,-7.3810844E0,-3.2548367E1,1.4058307E2,2.508252E2,4.998709E1,1.7287982E2,-4.4198887E1,-2.3793455E1,5.8864952E1,1.2364443E1,-4.4040043E1,-3.4865477E0,5.7178416E0,-3.2776062E1,9.881531E1,2.059625E2,1.5006526E2,1.5797617E1,1.3605592E2,3.2044937E1,1.9583966E2,1.2068049E-1,-2.8927076E1,-2.3261218E0,-3.1984964E1,-1.4480834E-1,6.907575E0,7.378852E1,-6.2971516E0,2.2203577E1,-4.6496197E1,-9.967971E0,7.96889E0,-7.4375744E0,-2.9414772E1,-3.728103E1,5.0164165E1,1.14180984E2,5.2825813E0,1.143117E1,1.1518676E1,5.9685966E1,7.127856E-1,1.5508464E2,6.579567E1,1.6217161E1,1.4050722E1,6.9614673E0,1.2299861E0,-1.195935E0,-2.0678036E0,-6.131236E-1,-1.8412284E0,-1.624515E-1,-3.049636E-1,2.3659933E0,-7.8948575E-1,2.41981E0,6.5125337E0,2.8803065E0,-1.7574637E-1,-1.5123802E0,-3.9728138E-1,1.3609875E0,-2.3906305E0,-1.2986676E0,-2.1091435E0,4.4628182E-1,1.4060408E-1,1.2029592E0,1.5635947E0,-4.3885547E-1,-1.5976219E0,-5.0872934E-1,-1.8123276E0,-2.5506554E0,2.8501194E0,-8.854065E-2,6.284432E-1,5.918676E0,7.242204E-1,6.245379E0,8.505283E0,-2.286645E-1,1.9140799E0,4.486934E0,6.458172E-1,4.3414087E0],"categories":[],"categories_nodes":[],"categories_segments":[],"categories_sizes":[],"default_left":[0,0,0,0,0,0,0,0,0,0,0,0,0,0,0,0,0,0,0,0,0,0,0,0,0,0,0,0,0,0,0,0,0,0,0,0,0,0,0,0,0,0,0,0,0,0,0,0,0,0,0,0,0,0,0,0,0,0,0,0,0,0,0,0,0,0,0,0,0,0,0,0,0,0,0,0,0,0,0,0,0,0,0,0,0,0,0,0,0,0,0,0,0,0,0,0,0],"id":0,"left_children":[1,3,5,7,9,11,13,15,17,19,21,23,25,27,29,31,33,35,37,39,41,-1,43,45,47,49,-1,51,53,55,57,59,-1,61,63,65,67,69,71,73,75,77,79,81,83,85,87,-1,-1,-1,89,-1,91,93,95,-1,-1,-1,-1,-1,-1,-1,-1,-1,-1,-1,-1,-1,-1,-1,-1,-1,-1,-1,-1,-1,-1,-1,-1,-1,-1,-1,-1,-1,-1,-1,-1,-1,-1,-1,-1,-1,-1,-1,-1,-1,-1],"loss_changes":[4.658907E6,2.0523331E6,9.72317E5,9.304101E5,5.71508E5,2.91903E5,2.0788019E5,2.9424906E4,8.769349E5,2.5864034E5,6.384225E4,1.04957625E5,4.04913E5,1.2364556E5,6.721134E4,3.2273125E3,3.2314164E4,4.6464338E5,2.3059119E5,1.4041469E4,7.428635E4,0E0,2.604775E4,1.6534594E4,1.41545625E4,1.9644775E5,0E0,3.0067672E4,3.6244906E4,3.2780875E4,2.3544573E3,3.5817402E3,0E0,1.7085016E4,1.2682968E4,1.27923484E5,4.180895E5,2.877974E4,1.2454959E5,3.0610312E3,8.32229E3,3.4837758E4,6.3512234E4,5.0117938E4,8.91675E3,3.352459E3,7.7535312E3,0E0,0E0,0E0,4.2273176E4,0E0,2.9722188E4,1.0929578E4,1.0199378E4,0E0,0E0,0E0,0E0,0E0,0E0,0E0,0E0,0E0,0E0,0E0,0E0,0E0,0E0,0E0,0E0,0E0,0E0,0E0,0E0,0E0,0E0,0E0,0E0,0E0,0E0,0E0,0E0,0E0,0E0,0E0,0E0,0E0,0E0,0E0,0E0,0E0,0E0,0E0,0E0,0E0,0E0],"parents":[2147483647,0,0,1,1,2,2,3,3,4,4,5,5,6,6,7,7,8,8,9,9,10,10,11,11,12,12,13,13,14,14,15,15,16,16,17,17,18,18,19,19,20,20,22,22,23,23,24,24,25,25,27,27,28,28,29,29,30,30,31,31,33,33,34,34,35,35,36,36,37,37,38,38,39,39,40,40,41,41,42,42,43,43,44,44,45,45,46,46,50,50,52,52,53,53,54,54],"right_children":[2,4,6,8,10,12,14,16,18,20,22,24,26,28,30,32,34,36,38,40,42,-1,44,46,48,50,-1,52,54,56,58,60,-1,62,64,66,68,70,72,74,76,78,80,82,84,86,88,-1,-1,-1,90,-1,92,94,96,-1,-1,-1,-1,-1,-1,-1,-1,-1,-1,-1,-1,-1,-1,-1,-1,-1,-1,-1,-1,-1,-1,-1,-1,-1,-1,-1,-1,-1,-1,-1,-1,-1,-1,-1,-1,-1,-1,-1,-1,-1,-1],"split_conditions":[2.061519E0,-2.2018755E-2,-9.361339E-1,-6.581753E-1,5.6595045E-1,-1.5164288E0,3.1324518E0,4.0467232E-1,-7.1028584E-1,-1.0971906E0,-4.426513E0,4.2595925E0,2.6253295E0,-8.4548354E-1,1.4216113E-1,-2.7429185E0,-9.0641683E-1,-1.6422935E0,1.9736233E-4,-1.6688599E-1,1.7807549E-1,5.7178416E0,9.3227684E-1,-8.74194E-1,-2.2008832E0,-1.194246E0,1.5797617E1,-3.5152E-1,-7.308175E-1,-2.0221775E0,1.6610403E-1,-1.6535563E0,-2.3261218E0,2.547013E-1,-6.8648213E-1,-1.000662E0,-1.6136781E0,1.6084236E-1,-1.0971906E0,6.770665E-1,-1.194246E0,9.674201E-1,-3.7151378E-1,1.0212159E0,1.4350778E0,4.0467232E-1,-2.7429185E0,5.2825813E0,1.143117E1,1.1518676E1,-1.129718E0,7.127856E-1,6.734721E-2,-8.7160593E-1,1.06246784E-1,1.4050722E1,6.9614673E0,1.2299861E0,-1.195935E0,-2.0678036E0,-6.131236E-1,-1.8412284E0,-1.624515E-1,-3.049636E-1,2.3659933E0,-7.8948575E-1,2.41981E0,6.5125337E0,2.8803065E0,-1.7574637E-1,-1.5123802E0,-3.9728138E-1,1.3609875E0,-2.3906305E0,-1.2986676E0,-2.1091435E0,4.4628182E-1,1.4060408E-1,1.2029592E0,1.5635947E0,-4.3885547E-1,-1.5976219E0,-5.0872934E-1,-1.8123276E0,-2.5506554E0,2.8501194E0,-8.854065E-2,6.284432E-1,5.918676E0,7.242204E-1,6.245379E0,8.505283E0,-2.286645E-1,1.9140799E0,4.486934E0,6.458172E-1,4.3414087E0],"split_indices":[5,2,6,5,2,2,5,7,6,3,6,5,5,2,2,6,5,3,7,5,2,0,2,3,6,6,0,7,6,7,2,2,0,6,5,6,6,6,3,6,6,7,6,6,2,7,6,0,0,0,6,0,3,6,2,0,0,0,0,0,0,0,0,0,0,0,0,0,0,0,0,0,0,0,0,0,0,0,0,0,0,0,0,0,0,0,0,0,0,0,0,0,0,0,0,0,0],"split_type":[0,0,0,0,0,0,0,0,0,0,0,0,0,0,0,0,0,0,0,0,0,0,0,0,0,0,0,0,0,0,0,0,0,0,0,0,0,0,0,0,0,0,0,0,0,0,0,0,0,0,0,0,0,0,0,0,0,0,0,0,0,0,0,0,0,0,0,0,0,0,0,0,0,0,0,0,0,0,0,0,0,0,0,0,0,0,0,0,0,0,0,0,0,0,0,0,0],"sum_hessian":[5.97E3,5.759E3,2.11E2,2.149E3,3.61E3,1.13E2,9.8E1,2.96E2,1.853E3,1.812E3,1.798E3,4.5E1,6.8E1,8.2E1,1.6E1,1.3E2,1.66E2,5.99E2,1.254E3,1.73E2,1.639E3,2E0,1.796E3,2.9E1,1.6E1,2.8E1,4E1,1.3E1,6.9E1,1.4E1,2E0,1.9E1,1.11E2,1.23E2,4.3E1,1.34E2,4.65E2,4.33E2,8.21E2,1.61E2,1.2E1,4.2E2,1.219E3,1.033E3,7.63E2,8E0,2.1E1,4E0,1.2E1,1.4E1,1.4E1,2E0,1.1E1,2.1E1,4.8E1,4E0,1E1,1E0,1E0,1E1,9E0,1.05E2,1.8E1,3.9E1,4E0,8.7E1,4.7E1,1.02E2,3.63E2,3.89E2,4.4E1,1.17E2,7.04E2,1.5E2,1.1E1,4E0,8E0,3.19E2,1.01E2,4E1,1.179E3,9.12E2,1.21E2,7.13E2,5E1,7E0,1E0,1E0,2E1,9E0,5E0,1E1,1E0,1.1E1,1E1,4.7E1,1E0],"tree_param":{"num_deleted":"0","num_feature":"8","num_nodes":"97","size_leaf_vector":"1"}},{"base_weights":[1.7218571E-2,-9.033369E0,9.821086E1,-1.8294044E1,2.3918179E1,7.1878586E1,2.16918E2,-1.1198371E1,-3.1561E1,1.10574615E2,1.9895784E1,1.7651021E2,5.7018444E1,2.2862506E2,4.3629818E1,-2.6119858E1,-1.3855615E0,-3.593462E1,-2.5385416E1,-1.7029432E0,1.40045E2,3.0510547E0,3.2979378E1,1.82311E2,1.1296941E0,1.0908584E2,4.91405E1,2.4229962E2,1.4859047E2,2.6541378E0,6.499156E-1,-3.2621464E1,-1.1222672E1,-6.255118E0,3.0290016E1,-4.0579823E1,-2.85986E1,-2.5827988E1,3.695652E0,-1.8486656E1,8.874744E0,4.032383E0,1.6108235E2,2.727749E-1,1.1648656E1,2.7402327E1,7.1530396E1,3.9825647E0,1.8964406E2,9.634591E1,1.3174477E1,6.0577057E1,4.5406585E0,1.9851402E2,2.894285E2,7.789769E0,1.1680459E0,-1.8866558E0,-1.331406E0,-1.6328138E0,1.2690985E0,-7.664494E-1,-1.5203218E-2,5.4802833E0,1.3610872E0,-1.7969026E-1,-2.0641806E0,-9.902121E-1,-1.6301426E0,-1.5483278E0,-9.565194E-1,-1.1744355E0,1.3039112E-2,-2.1991721E-1,5.771046E-1,3.450126E0,8.436038E0,-2.8949344E-1,5.4641443E-1,1.6232618E0,1.8807748E-1,4.7621913E0,2.416806E0,3.827678E0,9.793773E0,2.153382E0,5.6143446E0,5.8490524E0,2.4232929E0,1.4661163E0,-9.808136E-1,1.2159812E1,7.7435403E0,3.7829766E0,1.4692569E1],"categories":[],"categories_nodes":[],"categories_segments":[],"categories_sizes":[],"default_left":[0,0,0,0,0,0,0,0,0,0,0,0,0,0,0,0,0,0,0,0,0,0,0,0,0,0,0,0,0,0,0,0,0,0,0,0,0,0,0,0,0,0,0,0,0,0,0,0,0,0,0,0,0,0,0,0,0,0,0,0,0,0,0,0,0,0,0,0,0,0,0,0,0,0,0,0,0,0,0,0,0,0,0,0,0,0,0,0,0,0,0,0,0,0,0],"id":1,"left_children":[1,3,5,7,9,11,13,15,17,19,21,23,25,27,29,31,33,35,37,39,41,43,45,47,-1,49,51,53,55,-1,-1,57,59,61,63,65,67,69,-1,71,73,-1,75,77,-1,79,81,-1,83,85,-1,87,89,91,93,-1,-1,-1,-1,-1,-1,-1,-1,-1,-1,-1,-1,-1,-1,-1,-1,-1,-1,-1,-1,-1,-1,-1,-1,-1,-1,-1,-1,-1,-1,-1,-1,-1,-1,-1,-1,-1,-1,-1,-1],"loss_changes":[5.3074645E6,1.6690116E6,1.559537E6,4.0147888E5,4.159493E5,6.334065E5,1.74364E5,4.0742797E5,3.9189875E4,1.7574656E5,2.528706E5,4.12105E4,1.4378825E5,5.66325E4,1.2708369E3,1.0651869E5,2.5929873E5,2.83495E4,2.9107938E4,2.3040708E3,3.9249E4,3.210135E5,1.3683169E5,2.1513125E4,0E0,6.6707375E4,1.6186169E5,8.856975E4,9.7153125E3,0E0,0E0,2.245925E4,2.6523606E5,7.8656375E4,5.1392625E4,1.35768125E4,1.12749375E4,2.0626656E4,0E0,4.9823193E2,3.4114136E2,0E0,9.220375E3,3.22395E4,0E0,6.758684E4,3.980397E4,0E0,1.6444375E4,3.3227594E4,0E0,1.6699438E5,4.009573E4,3.9941125E4,7.65325E3,0E0,0E0,0E0,0E0,0E0,0E0,0E0,0E0,0E0,0E0,0E0,0E0,0E0,0E0,0E0,0E0,0E0,0E0,0E0,0E0,0E0,0E0,0E0,0E0,0E0,0E0,0E0,0E0,0E0,0E0,0E0,0E0,0E0,0E0,0E0,0E0,0E0,0E0,0E0,0E0],"parents":[2147483647,0,0,1,1,2,2,3,3,4,4,5,5,6,6,7,7,8,8,9,9,10,10,11,11,12,12,13,13,14,14,15,15,16,16,17,17,18,18,19,19,20,20,21,21,22,22,23,23,25,25,26,26,27,27,28,28,31,31,32,32,33,33,34,34,35,35,36,36,37,37,39,39,40,40,42,42,43,43,45,45,46,46,48,48,49,49,51,51,52,52,53,53,54,54],"right_children":[2,4,6,8,10,12,14,16,18,20,22,24,26,28,30,32,34,36,38,40,42,44,46,48,-1,50,52,54,56,-1,-1,58,60,62,64,66,68,70,-1,72,74,-1,76,78,-1,80,82,-1,84,86,-1,88,90,92,94,-1,-1,-1,-1,-1,-1,-1,-1,-1,-1,-1,-1,-1,-1,-1,-1,-1,-1,-1,-1,-1,-1,-1,-1,-1,-1,-1,-1,-1,-1,-1,-1,-1,-1,-1,-1,-1,-1,-1,-1],"split_conditions":[1.3960991E0,4.9503753E-1,2.6253295E0,6.899721E-1,-1.4781693E0,-1.9298654E0,3.4842734E0,-6.5631884E-1,-2.4869579E-1,-2.6525793E0,1.9736233E-4,3.8704426E0,1.5963349E0,-9.361339E-1,4.2995195E0,9.674201E-1,1.3309946E0,3.8708645E-1,8.2471055E-1,-1.6422935E0,-2.0904684E0,3.1324518E0,9.3455625E-1,-3.1946146E0,1.1296941E0,9.5933366E-1,-8.232099E-1,-1.38783E0,1.6964529E0,2.6541378E0,6.499156E-1,-1.1497573E0,-6.8648213E-1,-2.2998159E-1,-1.9298654E0,-1.5163654E0,8.2548094E-1,-1.05317846E-1,3.695652E0,4.1235617E-1,-4.850307E-1,4.032383E0,-1.6422935E0,-4.9220693E-1,1.1648656E1,1.4793676E-1,1.3993571E0,3.9825647E0,1.4086138E0,-3.5152E-1,1.3174477E1,3.2931563E-1,-7.50307E-1,2.3972785E0,-2.3211372E0,7.789769E0,1.1680459E0,-1.8866558E0,-1.331406E0,-1.6328138E0,1.2690985E0,-7.664494E-1,-1.5203218E-2,5.4802833E0,1.3610872E0,-1.7969026E-1,-2.0641806E0,-9.902121E-1,-1.6301426E0,-1.5483278E0,-9.565194E-1,-1.1744355E0,1.3039112E-2,-2.1991721E-1,5.771046E-1,3.450126E0,8.436038E0,-2.8949344E-1,5.4641443E-1,1.6232618E0,1.8807748E-1,4.7621913E0,2.416806E0,3.827678E0,9.793773E0,2.153382E0,5.6143446E0,5.8490524E0,2.4232929E0,1.4661163E0,-9.808136E-1,1.2159812E1,7.7435403E0,3.7829766E0,1.4692569E1],"split_indices":[4,4,5,6,6,6,4,4,4,6,7,4,4,6,4,7,3,7,5,3,6,5,3,6,0,3,6,6,4,0,0,4,5,3,6,5,6,7,0,5,5,0,3,7,0,6,5,0,4,7,0,5,3,4,7,0,0,0,0,0,0,0,0,0,0,0,0,0,0,0,0,0,0,0,0,0,0,0,0,0,0,0,0,0,0,0,0,0,0,0,0,0,0,0,0],"split_type":[0,0,0,0,0,0,0,0,0,0,0,0,0,0,0,0,0,0,0,0,0,0,0,0,0,0,0,0,0,0,0,0,0,0,0,0,0,0,0,0,0,0,0,0,0,0,0,0,0,0,0,0,0,0,0,0,0,0,0,0,0,0,0,0,0,0,0,0,0,0,0,0,0,0,0,0,0,0,0,0,0,0,0,0,0,0,0,0,0,0,0,0,0,0,0],"sum_hessian":[5.97E3,5.467E3,5.03E2,4.268E3,1.199E3,4.13E2,9E1,2.782E3,1.486E3,5.2E1,1.147E3,5E1,3.63E2,8.4E1,6E0,1.103E3,1.679E3,8.67E2,6.19E2,1.1E1,4.1E1,5.02E2,6.45E2,4.8E1,2E0,4.6E1,3.17E2,7E1,1.4E1,4E0,2E0,7.67E2,3.36E2,1.456E3,2.23E2,5.28E2,3.39E2,6.17E2,2E0,4E0,7E0,1.2E1,2.9E1,4.97E2,5E0,5.65E2,8E1,4E0,4.4E1,4.4E1,2E0,2.52E2,6.5E1,3.9E1,3.1E1,1.3E1,1E0,4.11E2,3.56E2,2.12E2,1.24E2,5.76E2,8.8E2,7E0,2.16E2,1E1,5.18E2,1.08E2,2.31E2,3.47E2,2.7E2,3E0,1E0,1E0,6E0,3E0,2.6E1,3.17E2,1.8E2,4.65E2,1E2,3.8E1,4.2E1,3E0,4.1E1,1.1E1,3.3E1,4.3E1,2.09E2,3.2E1,3.3E1,1.7E1,2.2E1,1E0,3E1],"tree_param":{"num_deleted":"0","num_feature":"8","num_nodes":"95","size_leaf_vector":"1"}},{"base_weights":[3.8923573E-2,-8.5753145E0,9.349848E1,-1.7379692E1,2.275257E1,1.7348978E2,3.5298294E1,-8.831553E0,-2.9666603E1,1.0085901E2,1.4697772E1,1.4075435E2,2.246822E2,7.90972E1,1.9035913E1,-2.3806675E1,1.1901054E0,-4.119002E0,-3.1145424E1,-9.658219E0,1.0612297E2,3.4153107E1,7.221619E0,1.5166406E2,6.317821E1,1.5227914E2,2.665065E2,6.413538E1,1.7582018E2,8.407335E1,1.3379269E1,-2.0511825E-1,-3.0531286E1,4.69583E1,-3.4101868E0,-1.1313023E1,5.950028E1,-3.526131E1,-2.5264153E1,-9.9303323E-1,3.415558E-1,1.4687589E2,8.755434E1,5.7705387E1,2.8193066E1,1.370723E1,-1.5238355E1,9.388282E1,1.6831418E2,9.30642E1,-1.19378E1,1.046783E2,1.8806352E2,1.5356493E1,1.0482958E1,-5.9872527E0,9.433054E1,2.050817E0,1.861299E2,2.9313297E1,4.92954E0,5.833584E1,8.30421E0,-1.5926917E0,1.9478105E0,-1.9193739E0,-1.2034343E0,-8.1810087E-1,2.6020422E0,4.5270196E-1,-3.6738598E-1,5.4361625E0,-7.6902074E-1,-2.0530866E-1,3.8020082E0,-1.3509086E0,-1.8957223E0,-1.1136783E0,-1.7164396E0,8.778655E0,4.567563E0,3.7888806E0,6.93601E0,1.4339613E0,4.857742E0,1.6124823E0,7.026623E-1,6.38532E-1,1.4624099E1,-4.2531297E-1,-2.163658E0,7.5747857E0,3.1606438E0,8.991509E0,4.7263727E0,3.2041723E-1,4.983408E0,-1.48367E0,1.8935047E0,2.830849E0,6.38767E0,4.7615366E0,1.0461255E1,2.0426714E0,-9.360742E-1,3.8023438E0,6.9517784E0,1.1015151E1,4.404387E0,1.6591345E0,3.208933E-1,3.7270145E0,1.5068517E0,2.735532E0,1.7185272E-1],"categories":[],"categories_nodes":[],"categories_segments":[],"categories_sizes":[],"default_left":[0,0,0,0,0,0,0,0,0,0,0,0,0,0,0,0,0,0,0,0,0,0,0,0,0,0,0,0,0,0,0,0,0,0,0,0,0,0,0,0,0,0,0,0,0,0,0,0,0,0,0,0,0,0,0,0,0,0,0,0,0,0,0,0,0,0,0,0,0,0,0,0,0,0,0,0,0,0,0,0,0,0,0,0,0,0,0,0,0,0,0,0,0,0,0,0,0,0,0,0,0,0,0,0,0,0,0,0,0,0,0,0,0,0,0],"id":2,"left_children":[1,3,5,7,9,11,13,15,17,19,21,23,25,27,29,31,33,35,37,39,41,43,45,47,49,51,53,55,57,59,61,63,65,67,69,71,73,75,77,-1,-1,79,81,83,85,87,89,91,93,95,97,99,101,-1,-1,103,105,-1,107,109,-1,111,113,-1,-1,-1,-1,-1,-1,-1,-1,-1,-1,-1,-1,-1,-1,-1,-1,-1,-1,-1,-1,-1,-1,-1,-1,-1,-1,-1,-1,-1,-1,-1,-1,-1,-1,-1,-1,-1,-1,-1,-1,-1,-1,-1,-1,-1,-1,-1,-1,-1,-1,-1,-1],"loss_changes":[4.8080365E6,1.5085875E6,2.3400435E6,4.4807362E5,7.533597E5,3.2328E5,2.070926E5,3.780913E5,6.598975E4,6.6278375E4,1.5810819E5,1.0191925E5,2.0428275E5,1.02808625E5,7.7874836E4,1.6026138E5,3.1812978E5,4.5019746E4,3.911075E4,1.1580894E3,6.7875625E4,4.067972E4,1.1499264E5,9.45735E4,4.16006E4,3.4528875E4,5.055725E4,1.488686E5,6.0364375E3,1.049668E4,4.485222E4,2.801001E5,3.8919938E4,4.5299438E4,6.744932E4,4.4543516E4,1.0904602E4,2.01465E4,1.7748156E4,0E0,0E0,3.4683125E4,3.5068688E4,6.57918E4,1.3438797E4,1.557514E5,3.2985867E4,3.9684375E4,5.7503E4,6.69475E3,6.4157744E3,1.0326922E4,1.31671875E4,0E0,0E0,1.3865264E4,2.9262938E4,0E0,1.0439281E4,1.9039453E2,0E0,6.7878203E3,4.040992E4,0E0,0E0,0E0,0E0,0E0,0E0,0E0,0E0,0E0,0E0,0E0,0E0,0E0,0E0,0E0,0E0,0E0,0E0,0E0,0E0,0E0,0E0,0E0,0E0,0E0,0E0,0E0,0E0,0E0,0E0,0E0,0E0,0E0,0E0,0E0,0E0,0E0,0E0,0E0,0E0,0E0,0E0,0E0,0E0,0E0,0E0,0E0,0E0,0E0,0E0,0E0,0E0],"parents":[2147483647,0,0,1,1,2,2,3,3,4,4,5,5,6,6,7,7,8,8,9,9,10,10,11,11,12,12,13,13,14,14,15,15,16,16,17,17,18,18,19,19,20,20,21,21,22,22,23,23,24,24,25,25,26,26,27,27,28,28,29,29,30,30,31,31,32,32,33,33,34,34,35,35,36,36,37,37,38,38,41,41,42,42,43,43,44,44,45,45,46,46,47,47,48,48,49,49,50,50,51,51,52,52,55,55,56,56,58,58,59,59,61,61,62,62],"right_children":[2,4,6,8,10,12,14,16,18,20,22,24,26,28,30,32,34,36,38,40,42,44,46,48,50,52,54,56,58,60,62,64,66,68,70,72,74,76,78,-1,-1,80,82,84,86,88,90,92,94,96,98,100,102,-1,-1,104,106,-1,108,110,-1,112,114,-1,-1,-1,-1,-1,-1,-1,-1,-1,-1,-1,-1,-1,-1,-1,-1,-1,-1,-1,-1,-1,-1,-1,-1,-1,-1,-1,-1,-1,-1,-1,-1,-1,-1,-1,-1,-1,-1,-1,-1,-1,-1,-1,-1,-1,-1,-1,-1,-1,-1,-1,-1],"split_conditions":[1.3960991E0,4.9503753E-1,-5.2291113E-1,5.6595045E-1,-9.699491E-1,2.3397574E0,-4.75096E-1,-6.5631884E-1,-7.3749954E-1,-9.209036E-1,-4.75096E-1,-7.8556854E-1,-1.5164288E0,2.3397574E0,-1.9298654E0,-1.3611109E0,-7.3749954E-1,-1.2827742E-1,-2.4869579E-1,-9.592123E-1,-7.308175E-1,-4.8443782E-1,1.4793676E-1,-1.9121398E0,1.4856782E0,4.2595925E0,-1.1619819E0,-1.1363897E0,-1.6535563E0,-3.8084176E0,1.5963349E0,-1.000662E0,-1.1497573E0,-6.5308523E-1,-4.75096E-1,-4.426513E0,6.7369354E-1,6.988336E-1,2.9480162E-1,-9.9303323E-1,3.415558E-1,-1.1470453E0,8.018234E-2,-6.192231E-1,1.0880438E0,4.2595925E0,1.0256627E0,7.480207E-2,-5.914084E-1,-1.37967E0,-7.3329544E-1,-1.1666642E0,-2.2008832E0,1.5356493E1,1.0482958E1,4.9498877E-1,1.8726605E0,2.050817E0,-1.0190696E0,4.2995195E0,4.92954E0,-7.991412E-2,5.5048138E-2,-1.5926917E0,1.9478105E0,-1.9193739E0,-1.2034343E0,-8.1810087E-1,2.6020422E0,4.5270196E-1,-3.6738598E-1,5.4361625E0,-7.6902074E-1,-2.0530866E-1,3.8020082E0,-1.3509086E0,-1.8957223E0,-1.1136783E0,-1.7164396E0,8.778655E0,4.567563E0,3.7888806E0,6.93601E0,1.4339613E0,4.857742E0,1.6124823E0,7.026623E-1,6.38532E-1,1.4624099E1,-4.2531297E-1,-2.163658E0,7.5747857E0,3.1606438E0,8.991509E0,4.7263727E0,3.2041723E-1,4.983408E0,-1.48367E0,1.8935047E0,2.830849E0,6.38767E0,4.7615366E0,1.0461255E1,2.0426714E0,-9.360742E-1,3.8023438E0,6.9517784E0,1.1015151E1,4.404387E0,1.6591345E0,3.208933E-1,3.7270145E0,1.5068517E0,2.735532E0,1.7185272E-1],"split_indices":[4,4,0,2,0,5,0,4,0,2,0,6,2,5,6,2,0,4,4,2,6,6,6,2,4,5,6,2,2,2,4,6,4,2,0,6,2,2,4,0,0,0,6,2,4,5,4,5,0,0,0,0,6,0,0,5,4,0,2,4,0,0,5,0,0,0,0,0,0,0,0,0,0,0,0,0,0,0,0,0,0,0,0,0,0,0,0,0,0,0,0,0,0,0,0,0,0,0,0,0,0,0,0,0,0,0,0,0,0,0,0,0,0,0,0],"split_type":[0,0,0,0,0,0,0,0,0,0,0,0,0,0,0,0,0,0,0,0,0,0,0,0,0,0,0,0,0,0,0,0,0,0,0,0,0,0,0,0,0,0,0,0,0,0,0,0,0,0,0,0,0,0,0,0,0,0,0,0,0,0,0,0,0,0,0,0,0,0,0,0,0,0,0,0,0,0,0,0,0,0,0,0,0,0,0,0,0,0,0,0,0,0,0,0,0,0,0,0,0,0,0,0,0,0,0,0,0,0,0,0,0,0,0],"sum_hessian":[5.97E3,5.467E3,5.03E2,4.268E3,1.199E3,2.11E2,2.92E2,2.518E3,1.75E3,1.11E2,1.088E3,1.31E2,8E1,7.8E1,2.14E2,1.009E3,1.509E3,9.6E1,1.654E3,5E0,1.06E2,3.01E2,7.87E2,1.14E2,1.7E1,3.1E1,4.9E1,6.9E1,9E0,1.6E1,1.98E2,2.24E2,7.85E2,1.37E2,1.372E3,8.7E1,9E0,9.7E2,6.84E2,3E0,2E0,3.1E1,7.5E1,5.9E1,2.42E2,6.11E2,1.76E2,2.7E1,8.7E1,1.2E1,5E0,1.5E1,1.6E1,2.6E1,2.3E1,2.1E1,4.8E1,1E0,8E0,4E0,1.2E1,1.9E1,1.79E2,1.24E2,1E2,3.52E2,4.33E2,1E1,1.27E2,3.29E2,1.043E3,2E0,8.5E1,2E0,7E0,2.39E2,7.31E2,5.17E2,1.67E2,1.9E1,1.2E1,6.3E1,1.2E1,3.5E1,2.4E1,1.87E2,5.5E1,6.1E2,1E0,1.43E2,3.3E1,8E0,1.9E1,7.4E1,1.3E1,1E0,1.1E1,4E0,1E0,6E0,9E0,4E0,1.2E1,4E0,1.7E1,3.6E1,1.2E1,5E0,3E0,3E0,1E0,1.1E1,8E0,1.6E1,1.63E2],"tree_param":{"num_deleted":"0","num_feature":"8","num_nodes":"115","size_leaf_vector":"1"}},{"base_weights":[6.579431E-2,-4.603495E0,1.2693391E2,4.3239323E1,-1.0372595E1,1.8706465E2,4.9449947E1,7.8099625E1,2.2517653E0,-6.586898E-1,-2.871348E1,2.1530453E2,1.1010306E2,3.2251495E1,1.3781169E2,1.7886927E1,9.063915E1,1.888196E1,-1.3375592E1,-2.6604458E1,4.5025926E0,-2.1918936E1,-3.1312998E1,1.4438908E2,2.5671625E2,8.841882E0,7.89651E1,5.2344166E1,1.0825217E1,1.9334033E2,2.2128695E1,5.5840195E1,-4.5304112E0,2.5583272E0,1.00924576E2,2.6573824E1,-4.7045445E0,5.2549567E0,-1.572524E1,-3.2524166E1,-2.4636052E0,2.6028576E1,-1.144349E0,-1.6600601E1,-2.4972147E1,-3.6231636E1,-2.863584E1,1.0309612E2,1.7955875E2,2.230322E2,1.5260091E1,1.1544652E2,3.633253E1,6.609908E1,1.7556715E1,2.1044401E1,-4.1798205E0,2.4637326E2,5.194761E1,3.568761E1,-1.1166471E0,-5.139415E-1,3.7975216E0,-1.1282424E0,1.8170637E0,-9.791633E-1,1.4666618E0,6.618142E0,3.2292316E0,2.7926066E0,8.10914E-1,-5.0869125E-1,2.834619E0,4.4401637E-1,-9.102292E-1,-1.3264421E0,-2.1369226E0,6.704299E-1,-1.0709653E0,3.1305687E0,7.850224E-1,4.1027856E-1,-2.979666E-1,1.304652E-1,-8.8626814E-1,-1.3409104E0,-6.3668317E-1,-1.2480215E0,-1.8837302E0,-6.9266933E-1,-1.567886E0,1.89013E0,5.6783996E0,4.571075E0,9.978427E0,2.8063464E0,1.1313048E1,3.4703393E0,7.2425513E0,1.9292986E-1,4.365955E0,1.931609E0,4.0341315E0,-8.921265E-2,1.3231031E0,1.172026E0,-8.2665914E-1,-0E0,-1.1934005E0,1.9995464E0,1.3696925E1,3.6499412E0,-2.551511E-1,3.1287098E-1,2.0615404E0],"categories":[],"categories_nodes":[],"categories_segments":[],"categories_sizes":[],"default_left":[0,0,0,0,0,0,0,0,0,0,0,0,0,0,0,0,0,0,0,0,0,0,0,0,0,0,0,0,0,0,0,0,0,0,0,0,0,0,0,0,0,0,0,0,0,0,0,0,0,0,0,0,0,0,0,0,0,0,0,0,0,0,0,0,0,0,0,0,0,0,0,0,0,0,0,0,0,0,0,0,0,0,0,0,0,0,0,0,0,0,0,0,0,0,0,0,0,0,0,0,0,0,0,0,0,0,0,0,0,0,0,0,0,0,0],"id":3,"left_children":[1,3,5,7,9,11,13,15,17,19,21,23,25,27,29,31,33,35,37,39,41,43,45,47,49,-1,51,53,55,57,59,61,63,65,67,69,71,-1,73,75,77,79,81,83,85,87,89,91,93,95,-1,97,99,101,103,105,107,109,111,113,-1,-1,-1,-1,-1,-1,-1,-1,-1,-1,-1,-1,-1,-1,-1,-1,-1,-1,-1,-1,-1,-1,-1,-1,-1,-1,-1,-1,-1,-1,-1,-1,-1,-1,-1,-1,-1,-1,-1,-1,-1,-1,-1,-1,-1,-1,-1,-1,-1,-1,-1,-1,-1,-1,-1],"loss_changes":[3.5378312E6,1.5902331E6,9.7825675E5,8.8562375E5,9.1588056E5,2.34602E5,1.3823575E5,2.51208E5,7.458546E4,4.503588E5,3.0699625E4,2.15091E5,5.6431406E4,3.3811086E4,9.186191E4,5.0502156E4,2.5058625E5,2.5364852E4,4.276267E4,7.962691E4,3.4101916E5,7.5979375E3,1.5818625E4,3.0582312E4,1.796125E4,0E0,3.453617E4,1.8374305E4,6.2383955E3,6.1887906E4,4.4274727E3,3.009907E4,2.8815979E4,1.8369363E4,2.745855E5,3.085736E4,1.2283153E4,0E0,9.0778125E3,2.6231562E4,3.369164E4,2.1921466E5,1.0012547E5,4.0369766E3,6.690547E3,6.2995E3,3.3197938E4,7.8628594E3,1.14455E4,5.879875E3,0E0,7.3311875E3,2.1096443E4,8.380117E3,2.3109868E3,2.5554238E3,1.4120403E3,2.8553844E4,5.2443516E3,5.101997E2,0E0,0E0,0E0,0E0,0E0,0E0,0E0,0E0,0E0,0E0,0E0,0E0,0E0,0E0,0E0,0E0,0E0,0E0,0E0,0E0,0E0,0E0,0E0,0E0,0E0,0E0,0E0,0E0,0E0,0E0,0E0,0E0,0E0,0E0,0E0,0E0,0E0,0E0,0E0,0E0,0E0,0E0,0E0,0E0,0E0,0E0,0E0,0E0,0E0,0E0,0E0,0E0,0E0,0E0,0E0],"parents":[2147483647,0,0,1,1,2,2,3,3,4,4,5,5,6,6,7,7,8,8,9,9,10,10,11,11,12,12,13,13,14,14,15,15,16,16,17,17,18,18,19,19,20,20,21,21,22,22,23,23,24,24,26,26,27,27,28,28,29,29,30,30,31,31,32,32,33,33,34,34,35,35,36,36,38,38,39,39,40,40,41,41,42,42,43,43,44,44,45,45,46,46,47,47,48,48,49,49,51,51,52,52,53,53,54,54,55,55,56,56,57,57,58,58,59,59],"right_children":[2,4,6,8,10,12,14,16,18,20,22,24,26,28,30,32,34,36,38,40,42,44,46,48,50,-1,52,54,56,58,60,62,64,66,68,70,72,-1,74,76,78,80,82,84,86,88,90,92,94,96,-1,98,100,102,104,106,108,110,112,114,-1,-1,-1,-1,-1,-1,-1,-1,-1,-1,-1,-1,-1,-1,-1,-1,-1,-1,-1,-1,-1,-1,-1,-1,-1,-1,-1,-1,-1,-1,-1,-1,-1,-1,-1,-1,-1,-1,-1,-1,-1,-1,-1,-1,-1,-1,-1,-1,-1,-1,-1,-1,-1,-1,-1],"split_conditions":[2.061519E0,-5.914084E-1,-5.2291113E-1,1.6460907E-2,5.2285326E-1,-9.361339E-1,3.1324518E0,-3.5978228E-1,5.6595045E-1,-6.2767947E-1,6.988336E-1,-1.5164288E0,-1.2388339E0,-7.197833E-1,-2.2565494E-1,9.3224835E-1,-2.6950727E0,-9.25281E-1,-4.426513E0,3.012104E-1,-4.8443782E-1,-4.0572894E-1,9.271126E-1,4.2595925E0,3.1324518E0,8.841882E0,-7.308175E-1,1.7479986E-2,-4.5042565E-1,7.054083E-2,-1.5849926E0,4.0467232E-1,-1.14369944E-1,-2.8934839E0,-7.308175E-1,6.1570275E-1,7.5772655E-1,5.2549567E0,-1.5156014E0,2.8311653E0,-4.0572894E-1,-4.75096E-1,-1.2308092E-1,-7.308175E-1,2.5584382E-1,-1.2542926E0,8.67631E-1,-3.8084176E0,-2.2008832E0,-3.1946146E0,1.5260091E1,2.3397574E0,3.1324518E0,-1.129718E0,-1.129718E0,2.8037312E0,-1.2719649E-1,-1.6535563E0,-7.556976E-1,-2.7429185E0,-1.1166471E0,-5.139415E-1,3.7975216E0,-1.1282424E0,1.8170637E0,-9.791633E-1,1.4666618E0,6.618142E0,3.2292316E0,2.7926066E0,8.10914E-1,-5.0869125E-1,2.834619E0,4.4401637E-1,-9.102292E-1,-1.3264421E0,-2.1369226E0,6.704299E-1,-1.0709653E0,3.1305687E0,7.850224E-1,4.1027856E-1,-2.979666E-1,1.304652E-1,-8.8626814E-1,-1.3409104E0,-6.3668317E-1,-1.2480215E0,-1.8837302E0,-6.9266933E-1,-1.567886E0,1.89013E0,5.6783996E0,4.571075E0,9.978427E0,2.8063464E0,1.1313048E1,3.4703393E0,7.2425513E0,1.9292986E-1,4.365955E0,1.931609E0,4.0341315E0,-8.921265E-2,1.3231031E0,1.172026E0,-8.2665914E-1,-0E0,-1.1934005E0,1.9995464E0,1.3696925E1,3.6499412E0,-2.551511E-1,3.1287098E-1,2.0615404E0],"split_indices":[5,0,0,2,2,6,5,5,2,5,2,2,0,2,0,7,2,0,6,2,6,0,6,5,5,0,6,0,2,7,2,7,2,6,6,7,6,0,0,0,0,0,6,6,5,5,2,2,6,6,0,5,5,6,6,5,2,2,2,6,0,0,0,0,0,0,0,0,0,0,0,0,0,0,0,0,0,0,0,0,0,0,0,0,0,0,0,0,0,0,0,0,0,0,0,0,0,0,0,0,0,0,0,0,0,0,0,0,0,0,0,0,0,0,0],"split_type":[0,0,0,0,0,0,0,0,0,0,0,0,0,0,0,0,0,0,0,0,0,0,0,0,0,0,0,0,0,0,0,0,0,0,0,0,0,0,0,0,0,0,0,0,0,0,0,0,0,0,0,0,0,0,0,0,0,0,0,0,0,0,0,0,0,0,0,0,0,0,0,0,0,0,0,0,0,0,0,0,0,0,0,0,0,0,0,0,0,0,0,0,0,0,0,0,0,0,0,0,0,0,0,0,0,0,0,0,0,0,0,0,0,0,0],"sum_hessian":[5.97E3,5.759E3,2.11E2,6.19E2,5.14E3,1.18E2,9.3E1,3.34E2,2.85E2,3.361E3,1.779E3,8.5E1,3.3E1,7.9E1,1.4E1,5.8E1,2.76E2,1.38E2,1.47E2,5.57E2,2.804E3,4.95E2,1.284E3,3.3E1,5.2E1,9E0,2.4E1,4E1,3.9E1,9E0,5E0,2.1E1,3.7E1,2.9E1,2.47E2,1.04E2,3.4E1,2E0,1.45E2,4.47E2,1.1E2,5.82E2,2.222E3,1.83E2,3.12E2,4.48E2,8.36E2,1.7E1,1.6E1,3.4E1,1.8E1,1.2E1,1.2E1,2.8E1,1.2E1,2.3E1,1.6E1,6E0,3E0,4E0,1E0,5E0,1.6E1,2.6E1,1.1E1,1.6E1,1.3E1,1.31E2,1.16E2,2.6E1,7.8E1,3.2E1,2E0,1.3E1,1.32E2,2.84E2,1.63E2,6E1,5E1,1.27E2,4.55E2,7.55E2,1.467E3,1E1,1.73E2,2.7E2,4.2E1,5.3E1,3.95E2,1.31E2,7.05E2,3E0,1.4E1,4E0,1.2E1,1E0,3.3E1,6E0,6E0,8E0,4E0,1.1E1,1.7E1,4E0,8E0,2.2E1,1E0,1.4E1,2E0,1E0,5E0,2E0,1E0,1E0,3E0],"tree_param":{"num_deleted":"0","num_feature":"8","num_nodes":"115","size_leaf_vector":"1"}},{"base_weights":[8.261914E-2,5.2273884E1,-1.1400338E1,3.0021652E1,1.5339604E2,-1.6194406E0,-2.6463694E1,-7.0606103E0,5.7484234E1,1.1830178E2,1.9793257E2,-2.015452E1,1.5699494E0,-1.5798005E1,-2.8482367E1,-2.1491568E1,1.4200997E1,8.7753784E1,3.5327732E1,1.6419862E2,9.312094E1,1.2798503E2,2.4066364E2,-2.7598286E1,2.6987517E0,-3.1059597E0,1.694964E1,6.1090393E0,-1.7667753E1,-1.9211512E1,-2.9373753E1,-2.7778185E1,-7.1600814E0,3.5700836E1,-8.038324E0,-2.9300196E1,9.364026E1,2.0701641E1,6.495932E1,7.96653E1,1.8405199E2,1.8887514E1,1.0440917E2,7.977877E1,1.714396E2,1.4203493E1,1.7542694E2,-3.7820747E1,-1.9530367E1,-7.125816E-1,3.6657364E0,3.1324963E1,-5.288508E0,4.119164E1,1.1193282E1,-1.4428309E1,3.3650055E1,-1.9889141E1,-4.6801944E0,-7.790731E0,-2.4949297E1,-2.8186321E1,-3.6196896E1,-1.4814342E0,5.017314E-1,2.1352719E-1,-1.3353465E0,-8.7224895E-1,2.3807342E0,-1.0026788E0,7.2364086E-1,8.018833E-2,-2.0607326E0,5.921892E-1,5.1478276E0,-1.4848077E0,1.2488493E0,2.594115E0,4.764809E0,4.383632E0,3.6516476E-1,3.4215646E0,9.491547E0,3.6010116E-1,2.3657408E0,7.132812E0,3.7229855E0,1.8613131E0,4.8934755E0,4.3882318E0,9.517885E0,4.3849483E0,9.743405E0,-2.0312502E0,-1.6405153E0,6.2040704E-1,-1.4909301E0,2.3068268E0,-1.5289558E-1,1.1617897E0,2.990006E0,8.899049E-2,-5.4549104E-1,4.0115767E0,1.4588839E0,2.4993359E-1,1.76076E0,-9.8510975E-1,1.4601521E0,1.21049285E-1,4.3722844E0,-1.043269E0,-4.263845E-1,7.7411324E-1,-1.1464695E0,-1.1629677E0,7.315335E-1,-1.3014158E0,3.062621E-1,-1.5337933E0,-1.2396382E0,-1.9763559E0,-1.5415715E0],"categories":[],"categories_nodes":[],"categories_segments":[],"categories_sizes":[],"default_left":[0,0,0,0,0,0,0,0,0,0,0,0,0,0,0,0,0,0,0,0,0,0,0,0,0,0,0,0,0,0,0,0,0,0,0,0,0,0,0,0,0,0,0,0,0,0,0,0,0,0,0,0,0,0,0,0,0,0,0,0,0,0,0,0,0,0,0,0,0,0,0,0,0,0,0,0,0,0,0,0,0,0,0,0,0,0,0,0,0,0,0,0,0,0,0,0,0,0,0,0,0,0,0,0,0,0,0,0,0,0,0,0,0,0,0,0,0,0,0,0,0,0,0],"id":4,"left_children":[1,3,5,7,9,11,13,15,17,19,21,23,25,27,29,31,33,35,37,39,41,43,45,47,49,51,53,55,57,59,61,63,65,67,69,71,73,75,77,79,81,83,85,87,89,-1,91,93,95,97,-1,99,101,103,105,107,109,111,113,115,117,119,121,-1,-1,-1,-1,-1,-1,-1,-1,-1,-1,-1,-1,-1,-1,-1,-1,-1,-1,-1,-1,-1,-1,-1,-1,-1,-1,-1,-1,-1,-1,-1,-1,-1,-1,-1,-1,-1,-1,-1,-1,-1,-1,-1,-1,-1,-1,-1,-1,-1,-1,-1,-1,-1,-1,-1,-1,-1,-1,-1,-1],"loss_changes":[3.5791172E6,2.4186705E6,7.211248E5,9.006995E5,2.794855E5,1.7556444E5,4.0995125E4,1.1598565E5,3.3747588E5,1.1273725E5,2.1990025E5,7.4269266E4,1.8229664E5,1.2776328E4,1.276625E4,2.0037898E4,7.3470336E4,1.5026138E5,1.2642091E5,4.8848062E4,5.9914E4,5.7294125E4,9.412225E4,2.6337922E4,2.6141467E4,1.462257E5,8.195803E4,1.4645223E4,8.104711E3,9.274738E3,1.0865875E4,1.1232617E4,1.5776777E4,5.0248156E4,2.085206E4,4.155952E3,1.5412188E5,4.36151E4,3.339003E4,4.4795664E3,6.7963125E3,3.2587778E3,6.2471438E4,1.0078102E4,9.925719E3,0E0,2.1854938E4,6.169219E2,6.1505312E4,1.1525173E4,0E0,2.5246953E4,7.270061E4,5.054928E4,7.106202E4,4.0174639E3,1.817829E4,2.4879062E3,1.6184235E4,1.769034E4,3.3982148E3,9.8374375E3,2.5526562E3,0E0,0E0,0E0,0E0,0E0,0E0,0E0,0E0,0E0,0E0,0E0,0E0,0E0,0E0,0E0,0E0,0E0,0E0,0E0,0E0,0E0,0E0,0E0,0E0,0E0,0E0,0E0,0E0,0E0,0E0,0E0,0E0,0E0,0E0,0E0,0E0,0E0,0E0,0E0,0E0,0E0,0E0,0E0,0E0,0E0,0E0,0E0,0E0,0E0,0E0,0E0,0E0,0E0,0E0,0E0,0E0,0E0,0E0,0E0,0E0],"parents":[2147483647,0,0,1,1,2,2,3,3,4,4,5,5,6,6,7,7,8,8,9,9,10,10,11,11,12,12,13,13,14,14,15,15,16,16,17,17,18,18,19,19,20,20,21,21,22,22,23,23,24,24,25,25,26,26,27,27,28,28,29,29,30,30,31,31,32,32,33,33,34,34,35,35,36,36,37,37,38,38,39,39,40,40,41,41,42,42,43,43,44,44,46,46,47,47,48,48,49,49,51,51,52,52,53,53,54,54,55,55,56,56,57,57,58,58,59,59,60,60,61,61,62,62],"right_children":[2,4,6,8,10,12,14,16,18,20,22,24,26,28,30,32,34,36,38,40,42,44,46,48,50,52,54,56,58,60,62,64,66,68,70,72,74,76,78,80,82,84,86,88,90,-1,92,94,96,98,-1,100,102,104,106,108,110,112,114,116,118,120,122,-1,-1,-1,-1,-1,-1,-1,-1,-1,-1,-1,-1,-1,-1,-1,-1,-1,-1,-1,-1,-1,-1,-1,-1,-1,-1,-1,-1,-1,-1,-1,-1,-1,-1,-1,-1,-1,-1,-1,-1,-1,-1,-1,-1,-1,-1,-1,-1,-1,-1,-1,-1,-1,-1,-1,-1,-1,-1,-1,-1],"split_conditions":[-8.209231E-1,1.5104572E0,5.013046E-1,-2.3658109E-1,2.8037312E0,-6.2767947E-1,5.936558E-1,-6.8648213E-1,-7.308175E-1,-1.194246E0,-1.5164288E0,3.012104E-1,9.674201E-1,1.7506205E-1,-1.2917739E0,3.012104E-1,8.321594E-3,-2.4808984E0,5.8066255E-1,-1.7766913E0,-1.129718E0,4.2595925E0,-1.06519E0,3.8708645E-1,7.5772655E-1,-1.56933E-1,1.0025918E0,5.8320755E-1,7.8031135E-1,9.053411E-1,1.1836773E0,-1.1529181E0,8.604481E-1,-2.4808984E0,8.091473E-1,-2.4417877E0,-2.8926015E0,-8.347092E-1,4.0467232E-1,-1.1529181E0,-3.1946146E0,7.054083E-2,-8.4548354E-1,-3.8084176E0,-2.2008832E0,1.4203493E1,3.1324518E0,-8.3549225E-1,1.0025918E0,-1.56933E-1,3.6657364E0,3.8708645E-1,-1.2308092E-1,-7.1028584E-1,1.1376448E0,6.125671E-2,-3.5978228E-1,5.916222E-1,9.674201E-1,9.8357457E-1,1.3093776E0,9.609898E-1,-7.999469E-1,-1.4814342E0,5.017314E-1,2.1352719E-1,-1.3353465E0,-8.7224895E-1,2.3807342E0,-1.0026788E0,7.2364086E-1,8.018833E-2,-2.0607326E0,5.921892E-1,5.1478276E0,-1.4848077E0,1.2488493E0,2.594115E0,4.764809E0,4.383632E0,3.6516476E-1,3.4215646E0,9.491547E0,3.6010116E-1,2.3657408E0,7.132812E0,3.7229855E0,1.8613131E0,4.8934755E0,4.3882318E0,9.517885E0,4.3849483E0,9.743405E0,-2.0312502E0,-1.6405153E0,6.2040704E-1,-1.4909301E0,2.3068268E0,-1.5289558E-1,1.1617897E0,2.990006E0,8.899049E-2,-5.4549104E-1,4.0115767E0,1.4588839E0,2.4993359E-1,1.76076E0,-9.8510975E-1,1.4601521E0,1.21049285E-1,4.3722844E0,-1.043269E0,-4.263845E-1,7.7411324E-1,-1.1464695E0,-1.1629677E0,7.315335E-1,-1.3014158E0,3.062621E-1,-1.5337933E0,-1.2396382E0,-1.9763559E0,-1.5415715E0],"split_indices":[1,5,2,5,5,5,2,5,6,6,2,2,7,1,5,2,6,1,5,2,6,5,6,7,6,1,7,6,6,2,2,1,2,1,7,6,2,2,7,1,6,7,2,2,6,0,5,5,7,1,0,7,6,6,5,5,5,5,7,6,2,6,5,0,0,0,0,0,0,0,0,0,0,0,0,0,0,0,0,0,0,0,0,0,0,0,0,0,0,0,0,0,0,0,0,0,0,0,0,0,0,0,0,0,0,0,0,0,0,0,0,0,0,0,0,0,0,0,0,0,0,0,0],"split_type":[0,0,0,0,0,0,0,0,0,0,0,0,0,0,0,0,0,0,0,0,0,0,0,0,0,0,0,0,0,0,0,0,0,0,0,0,0,0,0,0,0,0,0,0,0,0,0,0,0,0,0,0,0,0,0,0,0,0,0,0,0,0,0,0,0,0,0,0,0,0,0,0,0,0,0,0,0,0,0,0,0,0,0,0,0,0,0,0,0,0,0,0,0,0,0,0,0,0,0,0,0,0,0,0,0,0,0,0,0,0,0,0,0,0,0,0,0,0,0,0,0,0,0],"sum_hessian":[5.97E3,1.076E3,4.894E3,8.83E2,1.93E2,2.968E3,1.926E3,3.76E2,5.07E2,1.1E2,8.3E1,4.35E2,2.533E3,3.08E2,1.618E3,2.24E2,1.52E2,2.13E2,2.94E2,3.7E1,7.3E1,3.3E1,5E1,3.28E2,1.07E2,1.943E3,5.9E2,2.4E1,2.84E2,1.44E2,1.474E3,1.55E2,6.9E1,7.7E1,7.5E1,1E1,2.03E2,1.98E2,9.6E1,8E0,2.9E1,1E1,6.3E1,1.7E1,1.6E1,2.8E1,2.2E1,1.43E2,1.85E2,1.03E2,4E0,1.15E2,1.828E3,1.12E2,4.78E2,1.4E1,1E1,2.42E2,4.2E1,4.9E1,9.5E1,1.26E3,2.14E2,1.48E2,7E0,4.4E1,2.5E1,1.4E1,6.3E1,4.9E1,2.6E1,3E0,7E0,2.1E1,1.82E2,1.5E1,1.83E2,6.9E1,2.7E1,7E0,1E0,2E0,2.7E1,8E0,2E0,2.6E1,3.7E1,6E0,1.1E1,4E0,1.2E1,5E0,1.7E1,8.7E1,5.6E1,4.5E1,1.4E2,4E0,9.9E1,9.1E1,2.4E1,8.1E2,1.018E3,2.5E1,8.7E1,3.81E2,9.7E1,1.3E1,1E0,7E0,3E0,2.22E2,2E1,2E1,2.2E1,2.9E1,2E1,9.2E1,3E0,7.22E2,5.38E2,1.28E2,8.6E1],"tree_param":{"num_deleted":"0","num_feature":"8","num_nodes":"123","size_leaf_vector":"1"}},{"base_weights":[9.507873E-2,-7.3830733E0,8.122889E1,-1.5127262E1,2.01722E1,1.2721847E2,9.506512E0,-7.920363E0,-2.5485945E1,5.3277523E1,7.1282578E0,6.7065895E1,1.4155486E2,6.3071396E1,2.4468594E0,-2.143983E1,1.1270422E0,-2.09419E0,-2.7266819E1,2.049853E0,5.9165413E1,-7.4506774E0,1.4534451E1,8.0846085E1,2.319374E1,1.206423E2,1.8700755E2,2.6960514E1,7.7122375E1,-1.5503453E1,1.2851533E1,3.5823968E-1,-2.765373E1,-3.3769028E1,2.7967381E0,4.954315E0,-4.553111E0,-3.0830225E1,-2.1916628E1,-2.3138615E1,2.3407558E1,1.1182147E2,4.982046E1,4.3879333E1,-9.0602865E0,4.996618E1,1.2685601E1,3.7816837E1,1.0473161E2,-1.0354786E0,3.963731E1,1.6660062E2,9.387602E1,2.2363934E2,1.3246796E2,-4.888526E-1,3.3748318E1,7.928861E1,1.0907196E0,4.2506134E1,-2.5603317E1,2.8394222E1,-1.9394302E1,-1.4079887E0,1.7829583E0,-1.7489413E0,-1.081487E0,-1.9913218E0,8.49862E-2,1.2196327E0,-1.0991949E-1,-5.8814436E-1,9.0779793E-1,-1.6692995E0,-1.3168275E0,-9.5756453E-1,-1.5028023E0,-1.2247128E0,-1.1208534E-2,1.9152052E0,-8.784198E-1,1.043017E0,6.40011E0,8.869104E0,2.2793012E0,2.4718006E0,7.9769874E-1,-2.1790278E-1,-1.1924419E0,1.8843911E0,5.698219E0,-3.489751E-1,7.59027E-1,3.312552E0,-8.093525E-1,2.89296E0,7.2277627E0,2.4304833E0,8.5770386E-1,9.33826E0,4.545029E0,1.3587465E0,5.502368E0,2.4179888E0,1.1328386E1,7.795961E0,5.2103753E0,2.600367E0,3.401107E-1,1.1398395E0,4.0811987E0,2.7909317E0,8.9149535E-1,-1.5900613E0,-1.2896861E-1,9.8743325E-1,4.5225096E0,-5.8246E-1,-1.3433478E0],"categories":[],"categories_nodes":[],"categories_segments":[],"categories_sizes":[],"default_left":[0,0,0,0,0,0,0,0,0,0,0,0,0,0,0,0,0,0,0,0,0,0,0,0,0,0,0,0,0,0,0,0,0,0,0,0,0,0,0,0,0,0,0,0,0,0,0,0,0,0,0,0,0,0,0,0,0,0,0,0,0,0,0,0,0,0,0,0,0,0,0,0,0,0,0,0,0,0,0,0,0,0,0,0,0,0,0,0,0,0,0,0,0,0,0,0,0,0,0,0,0,0,0,0,0,0,0,0,0,0,0,0,0,0,0,0,0,0,0],"id":5,"left_children":[1,3,5,7,9,11,13,15,17,19,21,23,25,27,29,31,33,35,37,39,41,43,45,47,49,51,53,55,57,59,61,63,65,67,69,-1,71,73,75,77,79,81,83,85,87,89,91,93,95,-1,97,99,101,103,105,-1,107,109,-1,111,113,115,117,-1,-1,-1,-1,-1,-1,-1,-1,-1,-1,-1,-1,-1,-1,-1,-1,-1,-1,-1,-1,-1,-1,-1,-1,-1,-1,-1,-1,-1,-1,-1,-1,-1,-1,-1,-1,-1,-1,-1,-1,-1,-1,-1,-1,-1,-1,-1,-1,-1,-1,-1,-1,-1,-1,-1,-1],"loss_changes":[3.623464E6,1.1671342E6,1.661089E6,3.184625E5,5.177485E5,2.55046E5,7.465375E4,3.0815872E5,7.28565E4,1.0206775E5,9.31893E4,3.4899375E4,2.119125E5,9.486695E3,3.306761E4,1.3684278E5,8.804487E4,3.1455975E4,3.0290125E4,1.9908732E4,1.4385612E5,2.4405527E4,3.6774023E4,4.3174562E4,1.2390634E4,1.956825E5,1.2185775E5,2.3488691E3,8.622656E1,3.915418E4,5.6692625E4,2.275219E5,3.3870125E4,1.4930391E4,1.5563064E5,0E0,2.0345633E4,1.02471875E4,1.4095531E4,4.97875E2,1.290168E4,6.3412812E4,1.3213044E5,5.42459E2,1.954745E4,1.7555477E4,2.6853625E4,2.8762502E4,4.556603E4,0E0,1.5211133E3,7.7385875E4,1.1660194E5,1.135275E4,5.3624375E3,0E0,3.0314922E3,1.375E1,0E0,2.2161309E3,7.8748086E3,3.887818E4,1.7899346E3,0E0,0E0,0E0,0E0,0E0,0E0,0E0,0E0,0E0,0E0,0E0,0E0,0E0,0E0,0E0,0E0,0E0,0E0,0E0,0E0,0E0,0E0,0E0,0E0,0E0,0E0,0E0,0E0,0E0,0E0,0E0,0E0,0E0,0E0,0E0,0E0,0E0,0E0,0E0,0E0,0E0,0E0,0E0,0E0,0E0,0E0,0E0,0E0,0E0,0E0,0E0,0E0,0E0,0E0,0E0,0E0],"parents":[2147483647,0,0,1,1,2,2,3,3,4,4,5,5,6,6,7,7,8,8,9,9,10,10,11,11,12,12,13,13,14,14,15,15,16,16,17,17,18,18,19,19,20,20,21,21,22,22,23,23,24,24,25,25,26,26,27,27,28,28,29,29,30,30,31,31,32,32,33,33,34,34,36,36,37,37,38,38,39,39,40,40,41,41,42,42,43,43,44,44,45,45,46,46,47,47,48,48,50,50,51,51,52,52,53,53,54,54,56,56,57,57,59,59,60,60,61,61,62,62],"right_children":[2,4,6,8,10,12,14,16,18,20,22,24,26,28,30,32,34,36,38,40,42,44,46,48,50,52,54,56,58,60,62,64,66,68,70,-1,72,74,76,78,80,82,84,86,88,90,92,94,96,-1,98,100,102,104,106,-1,108,110,-1,112,114,116,118,-1,-1,-1,-1,-1,-1,-1,-1,-1,-1,-1,-1,-1,-1,-1,-1,-1,-1,-1,-1,-1,-1,-1,-1,-1,-1,-1,-1,-1,-1,-1,-1,-1,-1,-1,-1,-1,-1,-1,-1,-1,-1,-1,-1,-1,-1,-1,-1,-1,-1,-1,-1,-1,-1,-1,-1],"split_conditions":[1.3960991E0,4.9503753E-1,-8.209231E-1,5.6595045E-1,-4.8892805E-1,-2.1489034E0,1.5963349E0,-6.5631884E-1,-1.56933E-1,-9.209036E-1,-4.9220693E-1,-1.1619819E0,4.0467232E-1,-3.5152E-1,-1.129718E0,-1.3611109E0,-1.8169082E0,-4.426513E0,-2.4869579E-1,7.054083E-2,-7.308175E-1,-8.4579474E-1,-8.7160593E-1,-2.8926015E0,-5.625504E-1,-2.0221775E0,-1.0264732E0,1.4598105E0,-5.545773E-1,-1.8395262E0,-6.5308523E-1,-1.000662E0,-1.1497573E0,1.9603266E-1,-1.56933E-1,4.954315E0,-1.2827742E-1,3.8708645E-1,2.9480162E-1,-3.1505176E-1,-1.8169082E0,-8.347092E-1,-2.0221775E0,-7.556976E-1,1.167258E0,-5.545773E-1,-6.2999743E-1,-3.2158306E0,2.3972785E0,-1.0354786E0,2.0683196E0,-1.1529181E0,-1.2874532E0,-2.2008832E0,-9.209036E-1,-4.888526E-1,-5.4021156E-1,-1.2533679E0,1.0907196E0,2.5574672E0,-9.592123E-1,7.915614E-1,-7.554555E-1,-1.4079887E0,1.7829583E0,-1.7489413E0,-1.081487E0,-1.9913218E0,8.49862E-2,1.2196327E0,-1.0991949E-1,-5.8814436E-1,9.0779793E-1,-1.6692995E0,-1.3168275E0,-9.5756453E-1,-1.5028023E0,-1.2247128E0,-1.1208534E-2,1.9152052E0,-8.784198E-1,1.043017E0,6.40011E0,8.869104E0,2.2793012E0,2.4718006E0,7.9769874E-1,-2.1790278E-1,-1.1924419E0,1.8843911E0,5.698219E0,-3.489751E-1,7.59027E-1,3.312552E0,-8.093525E-1,2.89296E0,7.2277627E0,2.4304833E0,8.5770386E-1,9.33826E0,4.545029E0,1.3587465E0,5.502368E0,2.4179888E0,1.1328386E1,7.795961E0,5.2103753E0,2.600367E0,3.401107E-1,1.1398395E0,4.0811987E0,2.7909317E0,8.9149535E-1,-1.5900613E0,-1.2896861E-1,9.8743325E-1,4.5225096E0,-5.8246E-1,-1.3433478E0],"split_indices":[4,4,1,2,1,1,4,4,1,2,7,6,7,7,6,2,1,6,4,7,6,6,6,2,7,7,6,4,2,6,2,6,4,2,1,0,4,7,4,6,1,2,7,2,4,2,2,2,4,0,4,1,6,6,2,0,2,2,0,4,2,7,6,0,0,0,0,0,0,0,0,0,0,0,0,0,0,0,0,0,0,0,0,0,0,0,0,0,0,0,0,0,0,0,0,0,0,0,0,0,0,0,0,0,0,0,0,0,0,0,0,0,0,0,0,0,0,0,0],"split_type":[0,0,0,0,0,0,0,0,0,0,0,0,0,0,0,0,0,0,0,0,0,0,0,0,0,0,0,0,0,0,0,0,0,0,0,0,0,0,0,0,0,0,0,0,0,0,0,0,0,0,0,0,0,0,0,0,0,0,0,0,0,0,0,0,0,0,0,0,0,0,0,0,0,0,0,0,0,0,0,0,0,0,0,0,0,0,0,0,0,0,0,0,0,0,0,0,0,0,0,0,0,0,0,0,0,0,0,0,0,0,0,0,0,0,0,0,0,0,0],"sum_hessian":[5.97E3,5.467E3,5.03E2,4.268E3,1.199E3,3.06E2,1.97E2,2.518E3,1.75E3,3.38E2,8.61E2,6E1,2.46E2,2.2E1,1.75E2,1.009E3,1.509E3,1.24E2,1.626E3,3.5E1,3.03E2,2.9E2,5.71E2,4.5E1,1.5E1,1.71E2,7.5E1,7E0,1.5E1,6.4E1,1.11E2,2.24E2,7.85E2,6.8E1,1.441E3,2E0,1.22E2,9.73E2,6.53E2,1.6E1,1.9E1,4.4E1,2.59E2,8E0,2.82E2,2.7E1,5.44E2,1.7E1,2.8E1,4E0,1.1E1,6.1E1,1.1E2,4.3E1,3.2E1,1E0,6E0,1.4E1,1E0,9E0,5.5E1,7.5E1,3.6E1,1.24E2,1E2,3.52E2,4.33E2,5.8E1,1E1,2.7E2,1.171E3,9.3E1,2.9E1,6.16E2,3.57E2,4.9E2,1.63E2,1.5E1,1E0,1.4E1,5E0,7E0,3.7E1,7E0,2.52E2,6E0,2E0,2.15E2,6.7E1,2.4E1,3E0,6.1E1,4.83E2,1.1E1,6E0,1.4E1,1.4E1,7E0,4E0,4.7E1,1.4E1,2.2E1,8.8E1,1E0,4.2E1,1.5E1,1.7E1,3E0,3E0,1E0,1.3E1,5E0,4E0,4.3E1,1.2E1,6.7E1,8E0,1.9E1,1.7E1],"tree_param":{"num_deleted":"0","num_feature":"8","num_nodes":"119","size_leaf_vector":"1"}},{"base_weights":[1.0743303E-1,-3.9632297E0,1.10710785E2,3.8151825E1,-9.041691E0,1.6305827E2,4.3252674E1,6.834897E1,2.644152E0,-2.539775E-1,-2.3993538E1,1.8794913E2,9.5273796E1,2.7524649E1,1.241853E2,-1.8169744E1,8.1496704E1,1.7033846E1,-1.0881602E1,-2.4135813E1,4.4058323E0,-1.7093431E1,-2.6828255E1,1.2460249E2,2.2502153E2,7.833781E0,6.686212E1,4.4587135E1,9.322485E0,1.7530032E2,1.8129377E1,-8.763597E0,-2.943925E1,1.08516304E2,5.3153667E1,2.4200018E1,-4.9227796E0,4.789171E0,-1.3005667E1,-3.3620068E1,-1.3412905E1,2.2218475E1,-4.628829E-1,2.8275008E0,-1.7462507E1,-3.0604137E1,-2.4540491E1,8.794545E1,1.5602745E2,1.9463956E2,1.3454622E1,9.900085E1,2.9503239E1,5.5950344E1,1.5731735E1,1.8563614E1,-4.2133727E0,1.9615176E2,-2.840669E-1,3.0707808E1,-1.0940694E0,-9.8723805E-1,3.9573935E-1,-1.5985787E0,-5.533535E-1,1.0813494E0,5.766383E0,2.077661E0,3.8094819E0,9.5364267E-1,3.54504E0,-5.008993E-1,2.6216044E0,5.074249E-1,-7.67634E-1,-1.3634536E0,-1.8937596E0,-9.9410534E-1,2.8508818E-2,2.6429262E0,6.7739135E-1,3.010731E-1,-2.7663073E-1,-6.28952E-1,-1.0109273E0,-1.0640963E0,-1.5825123E0,-5.6444675E-1,-1.3556665E0,2.6019248E-1,4.6223836E0,3.8391724E0,8.721343E0,2.4171922E0,9.874554E0,2.8929963E0,6.2927966E0,-0E0,3.83827E0,1.5293243E0,3.484784E0,-5.657038E-2,1.5245173E0,1.0438657E0,-8.4128714E-1,-0E0,-1.1807858E0,2.4612901E0,1.1547775E1,1.7570248E-1,1.8188868E0],"categories":[],"categories_nodes":[],"categories_segments":[],"categories_sizes":[],"default_left":[0,0,0,0,0,0,0,0,0,0,0,0,0,0,0,0,0,0,0,0,0,0,0,0,0,0,0,0,0,0,0,0,0,0,0,0,0,0,0,0,0,0,0,0,0,0,0,0,0,0,0,0,0,0,0,0,0,0,0,0,0,0,0,0,0,0,0,0,0,0,0,0,0,0,0,0,0,0,0,0,0,0,0,0,0,0,0,0,0,0,0,0,0,0,0,0,0,0,0,0,0,0,0,0,0,0,0,0,0,0,0],"id":6,"left_children":[1,3,5,7,9,11,13,15,17,19,21,23,25,27,29,31,33,35,37,39,41,43,45,47,49,-1,51,53,55,57,59,61,63,65,67,69,71,-1,73,75,77,79,81,-1,83,85,87,89,91,93,-1,95,97,99,101,103,105,107,-1,109,-1,-1,-1,-1,-1,-1,-1,-1,-1,-1,-1,-1,-1,-1,-1,-1,-1,-1,-1,-1,-1,-1,-1,-1,-1,-1,-1,-1,-1,-1,-1,-1,-1,-1,-1,-1,-1,-1,-1,-1,-1,-1,-1,-1,-1,-1,-1,-1,-1,-1,-1],"loss_changes":[2.6888625E6,1.2322628E6,7.413685E5,6.6453106E5,6.754586E5,1.825885E5,1.1608372E5,3.8261525E5,5.58561E4,3.605776E5,3.6719875E4,1.735755E5,4.861478E4,2.437636E4,7.7944266E4,4.473922E3,2.1692312E5,2.2009355E4,3.4694344E4,5.3300656E4,2.3514269E5,1.6087672E4,1.08296875E4,2.5200375E4,1.812525E4,0E0,2.6967312E4,1.2491617E4,5.0960293E3,3.9042125E4,3.7003916E3,4.929955E3,5.3361523E2,8.4960375E4,3.5197125E4,2.369921E4,1.0711072E4,0E0,8.0951035E3,6.4688438E3,2.2645492E4,1.5383684E5,7.005421E4,0E0,7.1826406E3,4.1885E3,2.8431031E4,6.126625E3,1.11424375E4,4.807625E3,0E0,6.8972188E3,1.8148895E4,7.878375E3,3.299251E3,2.320457E3,1.3713132E3,3.4373E4,0E0,6.032085E2,0E0,0E0,0E0,0E0,0E0,0E0,0E0,0E0,0E0,0E0,0E0,0E0,0E0,0E0,0E0,0E0,0E0,0E0,0E0,0E0,0E0,0E0,0E0,0E0,0E0,0E0,0E0,0E0,0E0,0E0,0E0,0E0,0E0,0E0,0E0,0E0,0E0,0E0,0E0,0E0,0E0,0E0,0E0,0E0,0E0,0E0,0E0,0E0,0E0,0E0,0E0],"parents":[2147483647,0,0,1,1,2,2,3,3,4,4,5,5,6,6,7,7,8,8,9,9,10,10,11,11,12,12,13,13,14,14,15,15,16,16,17,17,18,18,19,19,20,20,21,21,22,22,23,23,24,24,26,26,27,27,28,28,29,29,30,30,31,31,32,32,33,33,34,34,35,35,36,36,38,38,39,39,40,40,41,41,42,42,44,44,45,45,46,46,47,47,48,48,49,49,51,51,52,52,53,53,54,54,55,55,56,56,57,57,59,59],"right_children":[2,4,6,8,10,12,14,16,18,20,22,24,26,28,30,32,34,36,38,40,42,44,46,48,50,-1,52,54,56,58,60,62,64,66,68,70,72,-1,74,76,78,80,82,-1,84,86,88,90,92,94,-1,96,98,100,102,104,106,108,-1,110,-1,-1,-1,-1,-1,-1,-1,-1,-1,-1,-1,-1,-1,-1,-1,-1,-1,-1,-1,-1,-1,-1,-1,-1,-1,-1,-1,-1,-1,-1,-1,-1,-1,-1,-1,-1,-1,-1,-1,-1,-1,-1,-1,-1,-1,-1,-1,-1,-1,-1,-1],"split_conditions":[2.061519E0,-5.914084E-1,-5.2291113E-1,1.6460907E-2,4.7975603E-1,-9.361339E-1,3.1324518E0,-1.6422935E0,5.6595045E-1,-6.2767947E-1,6.808764E-1,-1.5164288E0,-1.2388339E0,-7.197833E-1,-2.2565494E-1,-3.1080875E0,-7.308175E-1,-9.25281E-1,-4.426513E0,-1.7661804E0,-4.8443782E-1,-5.747673E-1,9.271126E-1,4.2595925E0,3.1324518E0,7.833781E0,-7.308175E-1,1.7479986E-2,-4.5042565E-1,-6.5308523E-1,-1.5849926E0,-4.9217625E0,-5.089145E-1,-3.1946146E0,4.8486367E-1,-9.699491E-1,7.5772655E-1,4.789171E0,-1.5156014E0,2.8311653E0,3.012104E-1,-4.75096E-1,-4.0572894E-1,2.8275008E0,-4.0572894E-1,-1.2542926E0,8.67631E-1,-2.7429185E0,-2.2008832E0,-3.1946146E0,1.3454622E1,2.3397574E0,3.1324518E0,-1.129718E0,-2.795364E-1,2.8037312E0,-1.2719649E-1,-1.6535563E0,-2.840669E-1,-2.7429185E0,-1.0940694E0,-9.8723805E-1,3.9573935E-1,-1.5985787E0,-5.533535E-1,1.0813494E0,5.766383E0,2.077661E0,3.8094819E0,9.5364267E-1,3.54504E0,-5.008993E-1,2.6216044E0,5.074249E-1,-7.67634E-1,-1.3634536E0,-1.8937596E0,-9.9410534E-1,2.8508818E-2,2.6429262E0,6.7739135E-1,3.010731E-1,-2.7663073E-1,-6.28952E-1,-1.0109273E0,-1.0640963E0,-1.5825123E0,-5.6444675E-1,-1.3556665E0,2.6019248E-1,4.6223836E0,3.8391724E0,8.721343E0,2.4171922E0,9.874554E0,2.8929963E0,6.2927966E0,-0E0,3.83827E0,1.5293243E0,3.484784E0,-5.657038E-2,1.5245173E0,1.0438657E0,-8.4128714E-1,-0E0,-1.1807858E0,2.4612901E0,1.1547775E1,1.7570248E-1,1.8188868E0],"split_indices":[5,0,0,2,2,6,5,3,2,5,2,2,0,2,0,2,6,0,6,3,6,0,6,5,5,0,6,0,2,2,2,2,5,6,5,0,6,0,0,0,2,0,0,0,0,5,2,6,6,6,0,5,5,6,3,5,2,2,0,6,0,0,0,0,0,0,0,0,0,0,0,0,0,0,0,0,0,0,0,0,0,0,0,0,0,0,0,0,0,0,0,0,0,0,0,0,0,0,0,0,0,0,0,0,0,0,0,0,0,0,0],"split_type":[0,0,0,0,0,0,0,0,0,0,0,0,0,0,0,0,0,0,0,0,0,0,0,0,0,0,0,0,0,0,0,0,0,0,0,0,0,0,0,0,0,0,0,0,0,0,0,0,0,0,0,0,0,0,0,0,0,0,0,0,0,0,0,0,0,0,0,0,0,0,0,0,0,0,0,0,0,0,0,0,0,0,0,0,0,0,0,0,0,0,0,0,0,0,0,0,0,0,0,0,0,0,0,0,0,0,0,0,0,0,0],"sum_hessian":[5.97E3,5.759E3,2.11E2,6.19E2,5.14E3,1.18E2,9.3E1,3.34E2,2.85E2,3.238E3,1.902E3,8.5E1,3.3E1,7.9E1,1.4E1,4.4E1,2.9E2,1.38E2,1.47E2,5.28E2,2.71E3,5.56E2,1.346E3,3.3E1,5.2E1,9E0,2.4E1,4E1,3.9E1,9E0,5E0,2.5E1,1.9E1,1.47E2,1.43E2,1.04E2,3.4E1,2E0,1.45E2,2.79E2,2.49E2,5.81E2,2.129E3,2E0,5.54E2,5.03E2,8.43E2,1.7E1,1.6E1,3.4E1,1.8E1,1.2E1,1.2E1,2.8E1,1.2E1,2.3E1,1.6E1,8E0,1E0,4E0,1E0,1.5E1,1E1,1.6E1,3E0,1.1E1,1.36E2,9.7E1,4.6E1,9.5E1,9E0,3.2E1,2E0,1.3E1,1.32E2,1.15E2,1.64E2,1.7E2,7.9E1,1.27E2,4.54E2,9.34E2,1.195E3,2.02E2,3.52E2,5.3E1,4.5E2,1.38E2,7.05E2,1E0,1.6E1,4E0,1.2E1,1E0,3.3E1,6E0,6E0,8E0,4E0,1.1E1,1.7E1,6E0,6E0,2.2E1,1E0,1.4E1,2E0,2E0,6E0,1E0,3E0],"tree_param":{"num_deleted":"0","num_feature":"8","num_nodes":"111","size_leaf_vector":"1"}},{"base_weights":[1.1908688E-1,-6.6684384E0,7.376009E1,-1.3788587E1,1.8666214E1,1.375804E2,2.7327791E1,2.4829645E1,-1.5583851E1,7.924553E1,1.2047539E1,1.1155502E2,1.7828127E2,2.158186E1,1.04630684E2,1.5980297E1,8.255613E1,-2.6603924E1,-1.13842E1,6.193793E1,1.0496746E2,-1.0455745E0,2.1645445E1,1.2053261E2,6.8269646E1,1.8358037E2,3.0128365E1,7.525789E1,1.3915606E1,3.651506E1,1.3114345E2,-7.7611017E0,2.84759E1,6.705733E1,6.014639E0,-3.0083323E1,-1.1023387E1,-2.0390472E1,-6.698833E0,1.2887948E1,7.54627E1,1.2941882E2,8.114262E1,1.31620655E1,-2.1995661E0,3.5997707E1,1.41886E1,1.1623282E2,1.1597389E1,8.890995E1,4.5630135E1,1.2620991E2,2.0117001E2,1.822766E0,2.5368768E-1,8.930593E1,2.6201561E1,3.427696E1,-6.2178183E0,2.0646086E0,1.7130986E-1,1.4397641E2,3.140847E0,-4.2589208E-1,8.5932696E-1,2.8085344E0,9.7764E-1,1.2759522E0,3.9567745E0,-1.5655434E0,-9.5479345E-1,-1.4387695E0,1.0295237E0,1.1966354E0,-1.0792868E0,-4.6343014E-1,5.933295E-1,1.4688524E0,-1.1035787E0,6.657187E0,3.2352242E0,1.4657341E0,6.645415E0,5.2565536E0,1.6073983E0,-7.153282E-1,9.967351E-2,1.4036727E0,2.7859998E0,2.2165618E0,5.638846E-1,7.008002E0,4.776798E0,1.3271801E0,4.9314427E0,-5.906341E-1,2.8135831E0,4.1076617E0,8.785644E0,1.0675067E1,7.354648E0,3.6401627E0,6.6007156E0,1.6034794E0,-4.9356604E-1,3.8074543E0,1.1776582E0,-7.010336E-1,1.3093182E0,4.167857E0,9.021647E0],"categories":[],"categories_nodes":[],"categories_segments":[],"categories_sizes":[],"default_left":[0,0,0,0,0,0,0,0,0,0,0,0,0,0,0,0,0,0,0,0,0,0,0,0,0,0,0,0,0,0,0,0,0,0,0,0,0,0,0,0,0,0,0,0,0,0,0,0,0,0,0,0,0,0,0,0,0,0,0,0,0,0,0,0,0,0,0,0,0,0,0,0,0,0,0,0,0,0,0,0,0,0,0,0,0,0,0,0,0,0,0,0,0,0,0,0,0,0,0,0,0,0,0,0,0,0,0,0,0,0,0],"id":7,"left_children":[1,3,5,7,9,11,13,15,17,19,21,23,25,27,29,31,33,35,37,39,41,43,45,47,49,51,53,55,57,59,61,63,65,67,-1,69,71,73,75,77,79,81,83,-1,85,87,89,91,-1,93,95,97,99,-1,-1,101,103,105,107,-1,-1,109,-1,-1,-1,-1,-1,-1,-1,-1,-1,-1,-1,-1,-1,-1,-1,-1,-1,-1,-1,-1,-1,-1,-1,-1,-1,-1,-1,-1,-1,-1,-1,-1,-1,-1,-1,-1,-1,-1,-1,-1,-1,-1,-1,-1,-1,-1,-1,-1,-1],"loss_changes":[2.9851048E6,9.866059E5,1.489591E6,2.9634706E5,4.8009975E5,2.04384E5,1.2775958E5,9.5642125E4,1.8848344E5,4.5863438E4,1.3614002E5,4.2877375E4,5.784625E4,1.1161293E5,3.1162312E4,4.9487785E4,6.367953E3,6.0614562E4,1.2457269E5,4.7366562E4,1.6085375E4,1.4030602E5,6.632816E4,2.4430625E4,7.4906484E3,5.2995E4,4.07583E2,2.0975469E4,9.903764E4,9.2029004E2,3.0246875E3,1.2326987E3,2.576243E4,7.91E3,0E0,1.174675E4,1.1677101E5,5.4074938E4,9.294882E4,1.0455369E4,2.6558219E4,3.2770938E3,2.7040938E4,0E0,2.3291242E4,3.1640531E4,3.5682062E4,3.8867125E4,0E0,4.530453E3,9.267086E3,3.1106375E4,6.9115E3,0E0,0E0,8.508984E3,2.2438564E3,5.1990094E4,3.1202084E4,0E0,0E0,9.0055E3,0E0,0E0,0E0,0E0,0E0,0E0,0E0,0E0,0E0,0E0,0E0,0E0,0E0,0E0,0E0,0E0,0E0,0E0,0E0,0E0,0E0,0E0,0E0,0E0,0E0,0E0,0E0,0E0,0E0,0E0,0E0,0E0,0E0,0E0,0E0,0E0,0E0,0E0,0E0,0E0,0E0,0E0,0E0,0E0,0E0,0E0,0E0,0E0,0E0],"parents":[2147483647,0,0,1,1,2,2,3,3,4,4,5,5,6,6,7,7,8,8,9,9,10,10,11,11,12,12,13,13,14,14,15,15,16,16,17,17,18,18,19,19,20,20,21,21,22,22,23,23,24,24,25,25,26,26,27,27,28,28,29,29,30,30,31,31,32,32,33,33,35,35,36,36,37,37,38,38,39,39,40,40,41,41,42,42,44,44,45,45,46,46,47,47,49,49,50,50,51,51,52,52,55,55,56,56,57,57,58,58,61,61],"right_children":[2,4,6,8,10,12,14,16,18,20,22,24,26,28,30,32,34,36,38,40,42,44,46,48,50,52,54,56,58,60,62,64,66,68,-1,70,72,74,76,78,80,82,84,-1,86,88,90,92,-1,94,96,98,100,-1,-1,102,104,106,108,-1,-1,110,-1,-1,-1,-1,-1,-1,-1,-1,-1,-1,-1,-1,-1,-1,-1,-1,-1,-1,-1,-1,-1,-1,-1,-1,-1,-1,-1,-1,-1,-1,-1,-1,-1,-1,-1,-1,-1,-1,-1,-1,-1,-1,-1,-1,-1,-1,-1,-1,-1],"split_conditions":[1.3960991E0,4.9503753E-1,-5.2291113E-1,-1.1470453E0,-9.25281E-1,2.3397574E0,2.6253295E0,4.8486367E-1,-8.9231116E-1,6.745954E-1,-3.1634825E-1,-5.914084E-1,3.4842734E0,1.5963349E0,-1.3890861E0,-8.338007E-1,1.260757E0,9.674201E-1,-6.2767947E-1,-1.3446362E0,1.0201777E0,-1.7661804E0,3.8708645E-1,1.2814399E0,7.6117563E-1,-1.1666642E0,4.2995195E0,-7.991412E-2,-7.50307E-1,4.2995195E0,2.4544888E0,1.0025918E0,6.1570275E-1,-1.3131057E0,6.014639E0,2.650714E-1,-7.8472215E-1,-7.3749954E-1,1.3309946E0,-1.5549806E-1,-1.2388339E0,5.951555E-1,1.2140664E0,1.31620655E1,-1.5649449E0,9.4941896E-1,-5.2291113E-1,8.4564227E-1,1.1597389E1,1.4856782E0,8.742679E-1,-2.0221775E0,2.5574672E0,1.822766E0,2.5368768E-1,1.496217E0,-1.30872E-1,4.9498877E-1,1.7807043E0,2.0646086E0,1.7130986E-1,1.6821504E0,3.140847E0,-4.2589208E-1,8.5932696E-1,2.8085344E0,9.7764E-1,1.2759522E0,3.9567745E0,-1.5655434E0,-9.5479345E-1,-1.4387695E0,1.0295237E0,1.1966354E0,-1.0792868E0,-4.6343014E-1,5.933295E-1,1.4688524E0,-1.1035787E0,6.657187E0,3.2352242E0,1.4657341E0,6.645415E0,5.2565536E0,1.6073983E0,-7.153282E-1,9.967351E-2,1.4036727E0,2.7859998E0,2.2165618E0,5.638846E-1,7.008002E0,4.776798E0,1.3271801E0,4.9314427E0,-5.906341E-1,2.8135831E0,4.1076617E0,8.785644E0,1.0675067E1,7.354648E0,3.6401627E0,6.6007156E0,1.6034794E0,-4.9356604E-1,3.8074543E0,1.1776582E0,-7.010336E-1,1.3093182E0,4.167857E0,9.021647E0],"split_indices":[4,4,0,0,0,5,5,5,4,5,7,0,4,4,7,4,5,7,5,0,7,3,7,3,5,0,4,0,3,4,4,7,7,0,0,5,5,0,3,5,0,4,4,0,7,4,0,5,0,4,5,7,4,0,0,4,3,5,5,0,0,4,0,0,0,0,0,0,0,0,0,0,0,0,0,0,0,0,0,0,0,0,0,0,0,0,0,0,0,0,0,0,0,0,0,0,0,0,0,0,0,0,0,0,0,0,0,0,0,0,0],"split_type":[0,0,0,0,0,0,0,0,0,0,0,0,0,0,0,0,0,0,0,0,0,0,0,0,0,0,0,0,0,0,0,0,0,0,0,0,0,0,0,0,0,0,0,0,0,0,0,0,0,0,0,0,0,0,0,0,0,0,0,0,0,0,0,0,0,0,0,0,0,0,0,0,0,0,0,0,0,0,0,0,0,0,0,0,0,0,0,0,0,0,0,0,0,0,0,0,0,0,0,0,0,0,0,0,0,0,0,0,0,0,0],"sum_hessian":[5.97E3,5.467E3,5.03E2,4.268E3,1.199E3,2.11E2,2.92E2,1.89E2,4.079E3,1.17E2,1.082E3,1.31E2,8E1,2.73E2,1.9E1,1.65E2,2.4E1,1.124E3,2.955E3,7.2E1,4.5E1,4.58E2,6.24E2,1.07E2,2.4E1,7.7E1,3E0,3.3E1,2.4E2,6E0,1.3E1,5.7E1,1.08E2,1.9E1,5E0,9.18E2,2.06E2,1.01E3,1.945E3,1.6E1,5.6E1,2E1,2.5E1,1E0,4.57E2,2.12E2,4.12E2,1.05E2,2E0,1.1E1,1.3E1,2E1,5.7E1,2E0,1E0,2.5E1,8E0,1.19E2,1.21E2,5E0,1E0,1E1,3E0,5.6E1,1E0,2.5E1,8.3E1,5E0,1.4E1,8.24E2,9.4E1,1.32E2,7.4E1,2.6E1,9.84E2,1.709E3,2.36E2,1.1E1,5E0,7E0,4.9E1,1E0,1.9E1,1.6E1,9E0,1.17E2,3.4E2,1.53E2,5.9E1,3.5E1,3.77E2,4.6E1,5.9E1,2E0,9E0,2E0,1.1E1,1.2E1,8E0,4.4E1,1.3E1,2E1,5E0,7E0,1E0,2.3E1,9.6E1,9.8E1,2.3E1,5E0,5E0],"tree_param":{"num_deleted":"0","num_feature":"8","num_nodes":"111","size_leaf_vector":"1"}},{"base_weights":[1.3985522E-1,-6.3243566E0,7.027313E1,-1.3096116E1,1.7770613E1,1.1068602E2,7.2527814E0,-2.4576248E1,-8.733191E0,4.6635105E1,6.3972554E0,5.7643436E1,1.23333435E2,5.6443954E1,7.774987E-1,-2.7821566E1,-1.0357618E1,-2.636179E0,-2.0536194E1,3.8098797E1,9.000262E1,-6.7385616E0,1.3070552E1,7.046815E1,1.7107172E1,1.0477558E2,1.6369681E2,2.3930727E1,3.455516E0,5.5598354E0,-3.4737835E1,-2.9361195E1,-2.265473E1,6.5279284E0,-2.2552917E1,-6.165381E0,2.1360558E1,6.804838E0,-2.1538576E1,1.695476E1,4.745271E1,1.778389E2,7.764221E1,2.054055E0,-8.239051E0,4.5813717E1,1.1362516E1,9.568692E1,3.5841663E1,-2.1943296E1,3.2035934E1,1.4541718E2,8.112193E1,1.9715988E2,1.1408857E2,3.0242128E1,-4.8122683E-1,-1.3063169E0,4.7485775E1,-2.1307607E0,-2.6535202E1,-1.2784976E0,-1.5970638E0,-9.232404E-2,-1.2284707E0,1.3087931E0,-7.9624516E-1,-1.531861E0,-7.808554E-1,-1.6446775E0,-2.2183512E-1,2.5874677E0,4.5592147E-1,-6.450732E-1,1.3621398E0,-1.2327856E0,-8.984987E-1,1.28330145E1,5.651438E-1,3.3764503E0,1.8523747E0,1.4228035E0,1.0091212E1,7.9027295E-2,4.4982166E0,-1.9225934E-1,-1.1030082E0,3.7381458E0,1.6278113E0,4.8492023E-1,1.8852997E0,2.4148746E0,7.3433237E0,-1.0900149E0,3.0209234E0,-8.4246635E-2,-1.3168328E0,2.0293176E0,5.8740443E-1,8.191413E0,3.8370302E0,1.0487287E0,4.7871456E0,1.0948514E1,7.262178E0,6.229914E0,3.8678205E0,3.235326E-1,1.9128294E0,-7.5375086E-1,3.3511516E-1,7.2477394E-1,3.0924108E0,3.9803874E-1,-1.6810907E0],"categories":[],"categories_nodes":[],"categories_segments":[],"categories_sizes":[],"default_left":[0,0,0,0,0,0,0,0,0,0,0,0,0,0,0,0,0,0,0,0,0,0,0,0,0,0,0,0,0,0,0,0,0,0,0,0,0,0,0,0,0,0,0,0,0,0,0,0,0,0,0,0,0,0,0,0,0,0,0,0,0,0,0,0,0,0,0,0,0,0,0,0,0,0,0,0,0,0,0,0,0,0,0,0,0,0,0,0,0,0,0,0,0,0,0,0,0,0,0,0,0,0,0,0,0,0,0,0,0,0,0,0,0,0,0],"id":8,"left_children":[1,3,5,7,9,11,13,15,17,19,21,23,25,27,29,31,33,35,37,39,41,43,45,47,49,51,53,55,-1,57,59,61,63,65,67,69,71,73,75,77,79,81,83,-1,85,87,89,91,93,95,97,99,101,103,105,107,-1,109,111,-1,113,-1,-1,-1,-1,-1,-1,-1,-1,-1,-1,-1,-1,-1,-1,-1,-1,-1,-1,-1,-1,-1,-1,-1,-1,-1,-1,-1,-1,-1,-1,-1,-1,-1,-1,-1,-1,-1,-1,-1,-1,-1,-1,-1,-1,-1,-1,-1,-1,-1,-1,-1,-1,-1,-1],"loss_changes":[2.7074992E6,8.92416E5,1.2826832E6,2.1357331E5,3.9359206E5,1.9866125E5,6.296719E4,5.389275E4,2.2264833E5,1.2194019E5,7.565664E4,3.0418734E4,1.6759725E5,7.7250625E3,3.0056902E4,6.8878125E3,4.5466594E4,1.7305211E5,2.9047438E4,5.5498188E4,4.564975E4,2.1185715E4,3.1412203E4,3.660783E4,1.004067E4,1.5332438E5,1.033585E5,2.0059297E3,0E0,4.5015914E4,1.5696875E2,6.29575E3,8.852656E3,4.145421E4,6.6523867E3,8.210679E4,9.693743E4,1.56705625E4,1.0827219E4,1.1740715E5,3.8546562E4,1.5524609E4,4.6628312E4,0E0,1.7075318E4,8.204914E3,2.347889E4,5.5771156E4,3.110552E4,3.72614E2,1.5524873E3,6.5580625E4,9.549E4,1.7653625E4,2.899E3,1.0413359E3,0E0,1.4995628E4,9.451199E3,0E0,3.471291E3,0E0,0E0,0E0,0E0,0E0,0E0,0E0,0E0,0E0,0E0,0E0,0E0,0E0,0E0,0E0,0E0,0E0,0E0,0E0,0E0,0E0,0E0,0E0,0E0,0E0,0E0,0E0,0E0,0E0,0E0,0E0,0E0,0E0,0E0,0E0,0E0,0E0,0E0,0E0,0E0,0E0,0E0,0E0,0E0,0E0,0E0,0E0,0E0,0E0,0E0,0E0,0E0,0E0,0E0],"parents":[2147483647,0,0,1,1,2,2,3,3,4,4,5,5,6,6,7,7,8,8,9,9,10,10,11,11,12,12,13,13,14,14,15,15,16,16,17,17,18,18,19,19,20,20,21,21,22,22,23,23,24,24,25,25,26,26,27,27,29,29,30,30,31,31,32,32,33,33,34,34,35,35,36,36,37,37,38,38,39,39,40,40,41,41,42,42,44,44,45,45,46,46,47,47,48,48,49,49,50,50,51,51,52,52,53,53,54,54,55,55,57,57,58,58,60,60],"right_children":[2,4,6,8,10,12,14,16,18,20,22,24,26,28,30,32,34,36,38,40,42,44,46,48,50,52,54,56,-1,58,60,62,64,66,68,70,72,74,76,78,80,82,84,-1,86,88,90,92,94,96,98,100,102,104,106,108,-1,110,112,-1,114,-1,-1,-1,-1,-1,-1,-1,-1,-1,-1,-1,-1,-1,-1,-1,-1,-1,-1,-1,-1,-1,-1,-1,-1,-1,-1,-1,-1,-1,-1,-1,-1,-1,-1,-1,-1,-1,-1,-1,-1,-1,-1,-1,-1,-1,-1,-1,-1,-1,-1,-1,-1,-1,-1],"split_conditions":[1.3960991E0,4.9503753E-1,-8.209231E-1,-8.9231116E-1,-4.8892805E-1,-2.1489034E0,1.5963349E0,9.674201E-1,7.5772655E-1,6.1245006E-1,-4.9220693E-1,-1.1619819E0,4.0467232E-1,-3.5152E-1,-1.30872E-1,3.8708645E-1,1.0025918E0,1.3309946E0,-8.209231E-1,1.9736233E-4,-1.6136781E0,-8.4579474E-1,-8.7160593E-1,2.6475735E0,-5.625504E-1,-2.0221775E0,-1.0264732E0,-1.30872E-1,3.455516E0,6.1570275E-1,-1.129718E0,2.2537038E-1,1.7506205E-1,-1.0971906E0,-1.9148449E0,-1.9148449E0,-1.56933E-1,1.2329844E-1,-1.5957981E-1,-1.7661804E0,-4.8443782E-1,5.450965E-1,-8.7160593E-1,2.054055E0,1.167258E0,-1.7104701E0,9.3455625E-1,2.3972785E0,2.6976323E0,-8.9897144E-1,2.0683196E0,-1.1529181E0,-1.2874532E0,2.1151278E0,1.7465118E0,-8.74194E-1,-4.8122683E-1,-1.129718E0,-1.129718E0,-2.1307607E0,-8.232099E-1,-1.2784976E0,-1.5970638E0,-9.232404E-2,-1.2284707E0,1.3087931E0,-7.9624516E-1,-1.531861E0,-7.808554E-1,-1.6446775E0,-2.2183512E-1,2.5874677E0,4.5592147E-1,-6.450732E-1,1.3621398E0,-1.2327856E0,-8.984987E-1,1.28330145E1,5.651438E-1,3.3764503E0,1.8523747E0,1.4228035E0,1.0091212E1,7.9027295E-2,4.4982166E0,-1.9225934E-1,-1.1030082E0,3.7381458E0,1.6278113E0,4.8492023E-1,1.8852997E0,2.4148746E0,7.3433237E0,-1.0900149E0,3.0209234E0,-8.4246635E-2,-1.3168328E0,2.0293176E0,5.8740443E-1,8.191413E0,3.8370302E0,1.0487287E0,4.7871456E0,1.0948514E1,7.262178E0,6.229914E0,3.8678205E0,3.235326E-1,1.9128294E0,-7.5375086E-1,3.3511516E-1,7.2477394E-1,3.0924108E0,3.9803874E-1,-1.6810907E0],"split_indices":[4,4,1,4,1,1,4,7,6,3,7,6,7,7,3,7,7,3,1,7,6,6,6,4,7,7,6,3,0,7,6,6,1,3,3,3,1,7,4,3,6,4,6,0,4,6,3,4,4,3,4,1,6,4,4,3,0,6,6,0,6,0,0,0,0,0,0,0,0,0,0,0,0,0,0,0,0,0,0,0,0,0,0,0,0,0,0,0,0,0,0,0,0,0,0,0,0,0,0,0,0,0,0,0,0,0,0,0,0,0,0,0,0,0,0],"split_type":[0,0,0,0,0,0,0,0,0,0,0,0,0,0,0,0,0,0,0,0,0,0,0,0,0,0,0,0,0,0,0,0,0,0,0,0,0,0,0,0,0,0,0,0,0,0,0,0,0,0,0,0,0,0,0,0,0,0,0,0,0,0,0,0,0,0,0,0,0,0,0,0,0,0,0,0,0,0,0,0,0,0,0,0,0,0,0,0,0,0,0,0,0,0,0,0,0,0,0,0,0,0,0,0,0,0,0,0,0,0,0,0,0,0,0],"sum_hessian":[5.97E3,5.467E3,5.03E2,4.268E3,1.199E3,3.06E2,1.97E2,1.174E3,3.094E3,3.38E2,8.61E2,6E1,2.46E2,2.2E1,1.75E2,9.55E2,2.19E2,2.041E3,1.053E3,2.84E2,5.4E1,2.9E2,5.71E2,4.5E1,1.5E1,1.71E2,7.5E1,7E0,1.5E1,1.55E2,2E1,7.32E2,2.23E2,9.2E1,1.27E2,1.78E3,2.61E2,3.7E1,1.016E3,8.8E1,1.96E2,5E0,4.9E1,8E0,2.82E2,2.7E1,5.44E2,2.5E1,2E1,4E0,1.1E1,6.1E1,1.1E2,4.3E1,3.2E1,6E0,1E0,1.34E2,2.1E1,8E0,1.2E1,3.01E2,4.31E2,1.9E1,2.04E2,4.9E1,4.3E1,5.7E1,7E1,1.07E2,1.673E3,7.4E1,1.87E2,1.9E1,1.8E1,5.39E2,4.77E2,1E0,8.7E1,6.5E1,1.31E2,1E0,4E0,7E0,4.2E1,2.15E2,6.7E1,7E0,2E1,5.13E2,3.1E1,1.4E1,1.1E1,6E0,1.4E1,1E0,3E0,7E0,4E0,4.7E1,1.4E1,2.2E1,8.8E1,2.8E1,1.5E1,2.3E1,9E0,2E0,4E0,4.9E1,8.5E1,7E0,1.4E1,2E0,1E1],"tree_param":{"num_deleted":"0","num_feature":"8","num_nodes":"115","size_leaf_vector":"1"}},{"base_weights":[1.4994556E-1,-6.0013394E0,6.688819E1,-1.2442853E1,1.6918512E1,1.2483984E2,2.4725601E1,2.3670614E1,-1.4121802E1,7.252556E1,1.0843211E1,9.648251E1,1.5808951E2,1.9302732E1,9.773263E1,1.5446483E1,7.7292015E1,-7.9432917E0,-2.1340092E1,-1.9815779E1,7.679567E1,1.8279297E1,-1.0466662E-1,1.1835796E2,7.295482E1,9.742405E1,1.7921634E2,6.870786E1,1.2248469E1,1.2416005E2,4.2446484E1,-6.4653716E0,2.6973465E1,5.969288E1,5.355179E0,-1.8404701E1,-4.9295577E-1,-2.4847004E1,-1.6651028E1,-1.2878026E0,-2.4784115E-1,6.054947E1,1.0087382E2,1.2892749E1,4.435121E1,-6.140375E0,1.6745974E1,7.023097E1,1.4307996E2,6.2165295E1,1.0275972E1,6.1521957E1,1.26295845E2,1.5636783E2,2.1404895E2,8.164613E1,2.3585325E1,3.1171352E1,-6.4564037E0,2.244994E0,1.3439827E2,2.3922267E0,9.15041E-2,-2.4011424E-1,-9.955873E-1,-1.4722571E0,1.4428718E0,2.225888E0,5.071318E0,1.0219046E-1,-1.2518928E0,-4.4584003E-1,3.9065546E-1,-9.494125E-1,-1.3732175E0,1.5155715E0,-8.579896E-1,7.193646E-1,3.6429696E0,3.6919618E0,6.478668E0,1.082179E0,2.5532138E-1,1.2512189E1,2.007865E0,-4.0938163E-1,1.3550892E0,1.2635311E0,-2.2636552E-1,1.0764122E0,5.844284E0,1.0970031E1,4.9689045E0,2.5167909E0,5.063103E0,3.1276804E-1,4.145153E0,1.5204906E0,6.562778E0,8.296797E0,4.924196E0,2.0520792E0,1.0975293E1,3.283142E0,6.1906657E0,1.4502236E0,-4.6919623E-1,3.4938416E0,1.0631537E0,-6.7494434E-1,1.1410593E0,8.477435E0,3.8340745E0],"categories":[],"categories_nodes":[],"categories_segments":[],"categories_sizes":[],"default_left":[0,0,0,0,0,0,0,0,0,0,0,0,0,0,0,0,0,0,0,0,0,0,0,0,0,0,0,0,0,0,0,0,0,0,0,0,0,0,0,0,0,0,0,0,0,0,0,0,0,0,0,0,0,0,0,0,0,0,0,0,0,0,0,0,0,0,0,0,0,0,0,0,0,0,0,0,0,0,0,0,0,0,0,0,0,0,0,0,0,0,0,0,0,0,0,0,0,0,0,0,0,0,0,0,0,0,0,0,0,0,0,0,0],"id":9,"left_children":[1,3,5,7,9,11,13,15,17,19,21,23,25,27,29,31,33,35,37,39,41,43,45,47,49,51,53,55,57,59,61,63,65,67,-1,69,71,73,75,-1,-1,77,79,81,83,85,87,89,91,93,-1,95,97,99,101,103,105,107,109,-1,111,-1,-1,-1,-1,-1,-1,-1,-1,-1,-1,-1,-1,-1,-1,-1,-1,-1,-1,-1,-1,-1,-1,-1,-1,-1,-1,-1,-1,-1,-1,-1,-1,-1,-1,-1,-1,-1,-1,-1,-1,-1,-1,-1,-1,-1,-1,-1,-1,-1,-1,-1,-1],"loss_changes":[2.451713E6,8.074935E5,1.228233E6,2.5916575E5,4.045257E5,1.8438125E5,1.1399739E5,8.2501375E4,1.8176219E5,4.8107062E4,8.818641E4,5.1391375E4,1.053035E5,9.457106E4,2.378464E4,4.2122777E4,6.5563125E3,1.7144227E5,3.0476188E4,3.712163E2,3.7933875E4,8.9953234E4,4.474096E4,5.9935938E4,7.1344375E4,2.0029266E4,2.187025E4,1.7818594E4,8.5527945E4,4.3355156E3,1.6167588E3,1.176688E3,1.2434844E4,6.738375E3,0E0,1.2418306E5,9.005091E4,1.59011875E4,1.981239E4,0E0,0E0,3.8642188E4,2.4367719E4,3.638403E4,8.464495E4,2.2252883E4,2.1171434E4,4.73339E4,1.0462106E5,2.0650953E4,0E0,1.59355E4,2.5048125E3,8.87025E3,1.433275E4,9.203797E3,1.8997832E3,4.4443617E4,2.545354E4,0E0,9.068984E3,0E0,0E0,0E0,0E0,0E0,0E0,0E0,0E0,0E0,0E0,0E0,0E0,0E0,0E0,0E0,0E0,0E0,0E0,0E0,0E0,0E0,0E0,0E0,0E0,0E0,0E0,0E0,0E0,0E0,0E0,0E0,0E0,0E0,0E0,0E0,0E0,0E0,0E0,0E0,0E0,0E0,0E0,0E0,0E0,0E0,0E0,0E0,0E0,0E0,0E0,0E0,0E0],"parents":[2147483647,0,0,1,1,2,2,3,3,4,4,5,5,6,6,7,7,8,8,9,9,10,10,11,11,12,12,13,13,14,14,15,15,16,16,17,17,18,18,19,19,20,20,21,21,22,22,23,23,24,24,25,25,26,26,27,27,28,28,29,29,30,30,31,31,32,32,33,33,35,35,36,36,37,37,38,38,41,41,42,42,43,43,44,44,45,45,46,46,47,47,48,48,49,49,51,51,52,52,53,53,54,54,55,55,56,56,57,57,58,58,60,60],"right_children":[2,4,6,8,10,12,14,16,18,20,22,24,26,28,30,32,34,36,38,40,42,44,46,48,50,52,54,56,58,60,62,64,66,68,-1,70,72,74,76,-1,-1,78,80,82,84,86,88,90,92,94,-1,96,98,100,102,104,106,108,110,-1,112,-1,-1,-1,-1,-1,-1,-1,-1,-1,-1,-1,-1,-1,-1,-1,-1,-1,-1,-1,-1,-1,-1,-1,-1,-1,-1,-1,-1,-1,-1,-1,-1,-1,-1,-1,-1,-1,-1,-1,-1,-1,-1,-1,-1,-1,-1,-1,-1,-1,-1,-1,-1],"split_conditions":[1.3960991E0,4.9503753E-1,-5.2291113E-1,-1.1470453E0,-9.25281E-1,1.9147264E0,2.6253295E0,4.8486367E-1,5.013046E-1,-9.209036E-1,-7.991412E-2,8.4564227E-1,-1.7253851E0,1.5963349E0,-4.0572894E-1,-8.338007E-1,1.24601126E-1,-6.5631884E-1,-2.8087655E-1,-9.592123E-1,6.745954E-1,1.0576173E0,3.552063E-1,-1.2995435E0,9.5933366E-1,4.2595925E0,2.0969245E0,-7.991412E-2,-7.50307E-1,-1.6535563E0,4.2995195E0,8.963625E-1,-1.1178598E0,1.260757E0,5.355179E0,-1.3611109E0,-3.1762388E-2,6.988336E-1,-7.3749954E-1,-1.2878026E0,-2.4784115E-1,-1.3446362E0,-4.145113E-1,-4.75096E-1,-1.7661804E0,1.0832206E0,-6.8194345E-2,2.2971606E0,-1.0190696E0,2.3972785E0,1.0275972E1,-1.1666642E0,-1.37967E0,-5.914084E-1,2.2276917E0,1.496217E0,-1.30872E-1,4.9498877E-1,1.7807043E0,2.244994E0,-1.0190696E0,2.3922267E0,9.15041E-2,-2.4011424E-1,-9.955873E-1,-1.4722571E0,1.4428718E0,2.225888E0,5.071318E0,1.0219046E-1,-1.2518928E0,-4.4584003E-1,3.9065546E-1,-9.494125E-1,-1.3732175E0,1.5155715E0,-8.579896E-1,7.193646E-1,3.6429696E0,3.6919618E0,6.478668E0,1.082179E0,2.5532138E-1,1.2512189E1,2.007865E0,-4.0938163E-1,1.3550892E0,1.2635311E0,-2.2636552E-1,1.0764122E0,5.844284E0,1.0970031E1,4.9689045E0,2.5167909E0,5.063103E0,3.1276804E-1,4.145153E0,1.5204906E0,6.562778E0,8.296797E0,4.924196E0,2.0520792E0,1.0975293E1,3.283142E0,6.1906657E0,1.4502236E0,-4.6919623E-1,3.4938416E0,1.0631537E0,-6.7494434E-1,1.1410593E0,8.477435E0,3.8340745E0],"split_indices":[4,4,0,0,0,5,5,5,2,2,0,5,2,4,0,4,4,4,4,2,5,5,0,2,3,5,4,0,3,2,4,2,5,5,0,2,3,2,0,0,0,0,2,0,3,3,2,4,2,4,0,0,0,0,5,4,3,5,5,0,2,0,0,0,0,0,0,0,0,0,0,0,0,0,0,0,0,0,0,0,0,0,0,0,0,0,0,0,0,0,0,0,0,0,0,0,0,0,0,0,0,0,0,0,0,0,0,0,0,0,0,0,0],"split_type":[0,0,0,0,0,0,0,0,0,0,0,0,0,0,0,0,0,0,0,0,0,0,0,0,0,0,0,0,0,0,0,0,0,0,0,0,0,0,0,0,0,0,0,0,0,0,0,0,0,0,0,0,0,0,0,0,0,0,0,0,0,0,0,0,0,0,0,0,0,0,0,0,0,0,0,0,0,0,0,0,0,0,0,0,0,0,0,0,0,0,0,0,0,0,0,0,0,0,0,0,0,0,0,0,0,0,0,0,0,0,0,0,0],"sum_hessian":[5.97E3,5.467E3,5.03E2,4.268E3,1.199E3,2.11E2,2.92E2,1.89E2,4.079E3,1.17E2,1.082E3,1.16E2,9.5E1,2.73E2,1.9E1,1.65E2,2.4E1,2.199E3,1.88E3,5E0,1.12E2,6.44E2,4.38E2,5.8E1,5.8E1,2.6E1,6.9E1,3.3E1,2.4E2,1.2E1,7E0,5.7E1,1.08E2,1.7E1,7E0,9.14E2,1.285E3,1.073E3,8.07E2,3E0,2E0,6.9E1,4.3E1,5.35E2,1.09E2,3.23E2,1.15E2,2.1E1,3.7E1,5.5E1,3E0,1.3E1,1.3E1,4.5E1,2.4E1,2.5E1,8E0,1.19E2,1.21E2,2E0,1E1,6E0,1E0,5.2E1,5E0,3E0,1.05E2,1.4E1,3E0,2.24E2,6.9E2,6.38E2,6.47E2,3.34E2,7.39E2,8E0,7.99E2,1.5E1,5.4E1,2.4E1,1.9E1,2.51E2,2.84E2,1E0,1.08E2,3.05E2,1.8E1,8.2E1,3.3E1,1.1E1,1E1,1.2E1,2.5E1,4.4E1,1.1E1,4E0,9E0,1E0,1.2E1,3.7E1,8E0,1E0,2.3E1,2E1,5E0,7E0,1E0,2.3E1,9.6E1,9.8E1,2.3E1,5E0,5E0],"tree_param":{"num_deleted":"0","num_feature":"8","num_nodes":"113","size_leaf_vector":"1"}},{"base_weights":[1.6803505E-1,-5.69402E0,6.376833E1,-1.1818715E1,1.6098494E1,1.1897618E2,2.3601667E1,2.2547016E1,-1.3416428E1,6.900986E1,1.0317663E1,1.22653656E2,-2.7559542E1,5.546385E1,7.299321E0,4.067697E1,-1.8153292E0,-2.3015862E1,-9.758181E0,5.708846E1,9.4550575E1,-1.2206645E0,1.8776503E1,6.545912E1,1.31229E2,-4.3822857E1,1.3189261E0,6.859399E1,3.7469498E1,2.7494267E1,-5.820932E0,1.9746765E1,5.74242E1,-8.397154E0,7.234468E0,-2.6063906E1,-9.367704E0,-2.4855337E0,-1.3605274E1,6.3706936E1,2.7586905E1,1.8366354E1,9.84624E1,1.2199384E1,-2.2909615E0,3.1706453E1,1.2060143E1,4.435104E1,8.21366E1,1.0788975E2,1.4817526E2,-2.4575777E0,-5.37702E-1,5.651467E1,9.015002E0,9.520347E0,6.494045E1,4.436274E1,-1.1563723E1,-1.3969862E0,-3.2223606E1,2.5532734E-1,1.5995947E0,6.1853397E-1,3.3083744E0,-4.7588985E-2,-4.9187168E-1,2.1760664E0,5.580601E-2,-1.1619314E0,-1.3970497E0,4.54803E-1,-1.0421093E0,-3.689941E-1,2.1999562E-1,2.7394807E0,-7.01287E-1,2.2846544E0,4.5158753E0,2.4926038E0,-1.0687293E0,1.2720986E-1,1.2252667E0,6.107139E0,4.0891485E0,-6.6061187E-1,7.46017E-2,1.2193966E0,2.4972777E0,1.9480644E0,4.7317895E-1,3.3109715E0,4.8779088E-1,8.487463E0,2.3002164E0,3.365379E0,6.8516946E0,7.837768E0,3.5696678E0,4.9684706E-1,3.3004575E0,9.2515796E-1,-9.4240713E-1,7.800569E0,1.7989807E0,3.424422E0,1.5184826E0,-7.49793E-1,1.6593856E0,1.6197976E0,-2.2971217E-1,-1.125141E0,-2.0110822E0],"categories":[],"categories_nodes":[],"categories_segments":[],"categories_sizes":[],"default_left":[0,0,0,0,0,0,0,0,0,0,0,0,0,0,0,0,0,0,0,0,0,0,0,0,0,0,0,0,0,0,0,0,0,0,0,0,0,0,0,0,0,0,0,0,0,0,0,0,0,0,0,0,0,0,0,0,0,0,0,0,0,0,0,0,0,0,0,0,0,0,0,0,0,0,0,0,0,0,0,0,0,0,0,0,0,0,0,0,0,0,0,0,0,0,0,0,0,0,0,0,0,0,0,0,0,0,0,0,0,0,0,0,0],"id":10,"left_children":[1,3,5,7,9,11,13,15,17,19,21,23,25,27,29,31,33,35,37,39,41,43,45,47,49,51,-1,53,55,57,59,61,63,65,67,69,71,73,75,77,79,81,83,-1,85,87,89,91,93,95,97,-1,-1,99,-1,101,103,105,107,109,111,-1,-1,-1,-1,-1,-1,-1,-1,-1,-1,-1,-1,-1,-1,-1,-1,-1,-1,-1,-1,-1,-1,-1,-1,-1,-1,-1,-1,-1,-1,-1,-1,-1,-1,-1,-1,-1,-1,-1,-1,-1,-1,-1,-1,-1,-1,-1,-1,-1,-1,-1,-1],"loss_changes":[2.2265798E6,7.300136E5,1.1146768E6,2.3468956E5,3.662546E5,1.177185E5,1.517249E5,8.403347E4,1.4302044E5,3.0379375E4,1.0574222E5,9.2739E4,6.4366973E3,2.0714281E4,5.184946E4,3.6995875E4,4.946174E3,4.6520625E4,8.265472E4,1.4357406E4,8.8035E3,1.2077986E5,5.385022E4,6.4395156E3,5.45545E4,2.9258496E2,0E0,6.513622E4,3.3090035E4,5.1277137E4,1.382104E4,8.763102E3,2.273789E4,4.945725E2,7.677334E3,4.17325E3,4.405678E4,3.4544016E4,5.631622E4,2.7854156E4,1.9626355E4,2.0199982E2,3.2360312E3,0E0,1.8953766E4,2.7139516E4,2.8431145E4,1.0626127E4,3.945971E4,8.4008125E4,5.5119E4,0E0,0E0,2.226414E4,0E0,6.209467E3,5.221957E4,1.6051195E4,4.165719E3,1.124964E4,3.5387695E2,0E0,0E0,0E0,0E0,0E0,0E0,0E0,0E0,0E0,0E0,0E0,0E0,0E0,0E0,0E0,0E0,0E0,0E0,0E0,0E0,0E0,0E0,0E0,0E0,0E0,0E0,0E0,0E0,0E0,0E0,0E0,0E0,0E0,0E0,0E0,0E0,0E0,0E0,0E0,0E0,0E0,0E0,0E0,0E0,0E0,0E0,0E0,0E0,0E0,0E0,0E0,0E0],"parents":[2147483647,0,0,1,1,2,2,3,3,4,4,5,5,6,6,7,7,8,8,9,9,10,10,11,11,12,12,13,13,14,14,15,15,16,16,17,17,18,18,19,19,20,20,21,21,22,22,23,23,24,24,25,25,27,27,28,28,29,29,30,30,31,31,32,32,33,33,34,34,35,35,36,36,37,37,38,38,39,39,40,40,41,41,42,42,44,44,45,45,46,46,47,47,48,48,49,49,50,50,53,53,55,55,56,56,57,57,58,58,59,59,60,60],"right_children":[2,4,6,8,10,12,14,16,18,20,22,24,26,28,30,32,34,36,38,40,42,44,46,48,50,52,-1,54,56,58,60,62,64,66,68,70,72,74,76,78,80,82,84,-1,86,88,90,92,94,96,98,-1,-1,100,-1,102,104,106,108,110,112,-1,-1,-1,-1,-1,-1,-1,-1,-1,-1,-1,-1,-1,-1,-1,-1,-1,-1,-1,-1,-1,-1,-1,-1,-1,-1,-1,-1,-1,-1,-1,-1,-1,-1,-1,-1,-1,-1,-1,-1,-1,-1,-1,-1,-1,-1,-1,-1,-1,-1,-1,-1],"split_conditions":[1.3960991E0,4.9503753E-1,-5.2291113E-1,-1.1470453E0,-9.25281E-1,-8.209231E-1,-1.1529181E0,-1.56933E-1,-8.9231116E-1,4.1423082E-1,-3.1634825E-1,-2.1489034E0,-7.3329544E-1,2.1151278E0,-4.0572894E-1,5.381178E-1,-8.338007E-1,9.674201E-1,-4.0572894E-1,1.2140664E0,5.951555E-1,-1.7661804E0,3.8708645E-1,2.3972785E0,1.8966888E0,-2.795364E-1,1.3189261E0,2.0683196E0,2.3972785E0,1.9395964E0,-1.30872E-1,-1.2827742E-1,-7.181564E-1,-1.5564098E0,5.8767265E-1,5.8767265E-1,1.0025918E0,-2.0954965E-2,-8.6656654E-1,8.99514E-1,1.0201777E0,-1.6110686E0,1.0201777E0,1.2199384E1,-1.5649449E0,9.4941896E-1,-5.2291113E-1,2.1970427E0,2.4544888E0,4.0467232E-1,-1.1529181E0,-2.4575777E0,-5.37702E-1,-2.1489034E0,9.015002E0,-7.50307E-1,2.4544888E0,-7.50307E-1,4.3984404E-1,1.5285131E0,1.6821504E0,2.5532734E-1,1.5995947E0,6.1853397E-1,3.3083744E0,-4.7588985E-2,-4.9187168E-1,2.1760664E0,5.580601E-2,-1.1619314E0,-1.3970497E0,4.54803E-1,-1.0421093E0,-3.689941E-1,2.1999562E-1,2.7394807E0,-7.01287E-1,2.2846544E0,4.5158753E0,2.4926038E0,-1.0687293E0,1.2720986E-1,1.2252667E0,6.107139E0,4.0891485E0,-6.6061187E-1,7.46017E-2,1.2193966E0,2.4972777E0,1.9480644E0,4.7317895E-1,3.3109715E0,4.8779088E-1,8.487463E0,2.3002164E0,3.365379E0,6.8516946E0,7.837768E0,3.5696678E0,4.9684706E-1,3.3004575E0,9.2515796E-1,-9.4240713E-1,7.800569E0,1.7989807E0,3.424422E0,1.5184826E0,-7.49793E-1,1.6593856E0,1.6197976E0,-2.2971217E-1,-1.125141E0,-2.0110822E0],"split_indices":[4,4,0,0,0,1,1,1,4,3,7,1,0,4,0,3,4,7,0,4,4,3,7,4,4,3,0,4,4,4,3,4,4,0,3,3,7,4,4,4,7,0,7,0,7,4,0,4,4,7,1,0,0,1,0,3,4,3,7,4,4,0,0,0,0,0,0,0,0,0,0,0,0,0,0,0,0,0,0,0,0,0,0,0,0,0,0,0,0,0,0,0,0,0,0,0,0,0,0,0,0,0,0,0,0,0,0,0,0,0,0,0,0],"split_type":[0,0,0,0,0,0,0,0,0,0,0,0,0,0,0,0,0,0,0,0,0,0,0,0,0,0,0,0,0,0,0,0,0,0,0,0,0,0,0,0,0,0,0,0,0,0,0,0,0,0,0,0,0,0,0,0,0,0,0,0,0,0,0,0,0,0,0,0,0,0,0,0,0,0,0,0,0,0,0,0,0,0,0,0,0,0,0,0,0,0,0,0,0,0,0,0,0,0,0,0,0,0,0,0,0,0,0,0,0,0,0,0,0],"sum_hessian":[5.97E3,5.467E3,5.03E2,4.268E3,1.199E3,2.11E2,2.92E2,1.89E2,4.079E3,1.17E2,1.082E3,2.06E2,5E0,9.8E1,1.94E2,1.08E2,8.1E1,1.124E3,2.955E3,8.2E1,3.5E1,4.58E2,6.24E2,2.8E1,1.78E2,4E0,1E0,5.5E1,4.3E1,7.6E1,1.18E2,4.9E1,5.9E1,4.7E1,3.4E1,9.18E2,2.06E2,1.023E3,1.932E3,6.6E1,1.6E1,2E0,3.3E1,1E0,4.57E2,2.12E2,4.12E2,1.4E1,1.4E1,7.8E1,1E2,3E0,1E0,5.1E1,4E0,2.2E1,2.1E1,5.3E1,2.3E1,1.02E2,1.6E1,2.3E1,2.6E1,1E1,4.9E1,8E0,3.9E1,4E0,3E1,3.72E2,5.46E2,7.9E1,1.27E2,5.98E2,4.25E2,1.1E1,1.921E3,4.1E1,2.5E1,1.1E1,5E0,1E0,1E0,1.1E1,2.2E1,1.17E2,3.4E2,1.53E2,5.9E1,3.5E1,3.77E2,8E0,6E0,3E0,1.1E1,3.4E1,4.4E1,8.9E1,1.1E1,9E0,4.2E1,1.7E1,5E0,4E0,1.7E1,1.8E1,3.5E1,2.2E1,1E0,8E0,9.4E1,9E0,7E0],"tree_param":{"num_deleted":"0","num_feature":"8","num_nodes":"113","size_leaf_vector":"1"}},{"base_weights":[1.7738155E-1,-5.4011917E0,6.0702106E1,-1.1226288E1,1.5325254E1,1.1319168E2,2.2512714E1,2.1459793E1,-1.2745927E1,6.572905E1,9.818355E0,8.6952515E1,1.4398117E2,1.7404757E1,9.1316086E1,1.385006E1,7.109003E1,-6.8296103E0,-1.9443695E1,8.168723E0,7.215881E1,1.6678514E1,-2.8101116E-1,1.07829185E2,6.458512E1,9.6588295E1,1.683968E2,6.3525307E1,1.0821755E1,1.1590011E2,3.982753E1,-5.914821E0,2.4249264E1,5.4448162E1,4.9761486E0,-1.9577986E1,-1.3572637E0,-2.2541367E1,-1.5347427E1,-2.533741E1,6.704602E1,5.856531E1,1.00424286E2,1.5760682E1,1.5957088E2,-5.918055E0,1.5457638E1,6.3467445E1,1.3064838E2,5.408165E1,9.7618685E0,6.774456E1,1.2308493E2,1.9606029E2,1.3232043E2,7.563416E1,2.1374678E1,2.8467745E1,-6.6154604E0,1.25471085E2,2.0919921E0,2.2560754E0,4.4241905E-2,-2.1595855E-1,-9.428633E-1,2.8270292E0,1.0383819E0,1.9950018E0,4.7570796E0,-3.1712916E-1,-1.2866004E0,4.0896025E-2,-1.4886168E0,-8.419857E-1,-1.2595437E0,1.4482517E0,-7.9084295E-1,-1.4605973E0,-3.7588474E-1,4.754377E0,-1.103002E0,3.8335514E0,2.1853025E0,1.2559512E0,5.6469417E0,1.0570167E0,-2.1827042E-2,6.706957E-1,1.0174262E1,-6.308817E-1,1.8340234E-1,1.1742355E0,-2.2815414E-1,5.681047E0,9.9643975E-1,1.0105771E1,4.492573E0,2.1653333E0,4.494886E0,4.429441E0,2.001293E0,1.3932365E0,6.3616076E0,5.8879814E0,1.1023736E1,7.1840944E0,4.1495595E0,3.0157716E0,5.8238688E0,1.8879212E0,3.3615333E-1,3.2372224E0,9.594137E-1,-6.5707827E-1,1.026935E0,2.1125212E0,6.957948E0],"categories":[],"categories_nodes":[],"categories_segments":[],"categories_sizes":[],"default_left":[0,0,0,0,0,0,0,0,0,0,0,0,0,0,0,0,0,0,0,0,0,0,0,0,0,0,0,0,0,0,0,0,0,0,0,0,0,0,0,0,0,0,0,0,0,0,0,0,0,0,0,0,0,0,0,0,0,0,0,0,0,0,0,0,0,0,0,0,0,0,0,0,0,0,0,0,0,0,0,0,0,0,0,0,0,0,0,0,0,0,0,0,0,0,0,0,0,0,0,0,0,0,0,0,0,0,0,0,0,0,0,0,0,0,0,0,0],"id":11,"left_children":[1,3,5,7,9,11,13,15,17,19,21,23,25,27,29,31,33,35,37,39,41,43,45,47,49,51,53,55,57,59,61,63,65,67,-1,69,71,73,75,77,79,81,83,85,87,89,91,93,95,97,-1,99,101,103,105,107,109,111,113,115,-1,-1,-1,-1,-1,-1,-1,-1,-1,-1,-1,-1,-1,-1,-1,-1,-1,-1,-1,-1,-1,-1,-1,-1,-1,-1,-1,-1,-1,-1,-1,-1,-1,-1,-1,-1,-1,-1,-1,-1,-1,-1,-1,-1,-1,-1,-1,-1,-1,-1,-1,-1,-1,-1,-1,-1,-1],"loss_changes":[2.0164412E6,6.603389E5,1.0076069E6,2.1231056E5,3.3236153E5,1.5852225E5,1.0127522E5,7.06883E4,1.615155E5,4.3001906E4,7.505485E4,4.7497375E4,9.4554125E4,8.24278E4,2.0544188E4,3.4281242E4,6.256625E3,1.5119983E5,2.389E4,2.7386236E4,3.4687688E4,8.190222E4,3.9029777E4,5.1239562E4,7.0157734E4,1.822E4,3.560475E4,1.5639797E4,7.436514E4,3.7977812E3,1.5633633E3,1.0931697E3,1.1002941E4,6.725039E3,0E0,5.282928E4,9.387787E4,1.59545625E4,1.7648E4,3.6505176E2,1.466401E4,1.6437422E4,2.8124594E4,5.597089E4,2.2727125E4,2.0863436E4,1.8768178E4,4.5641656E4,9.234181E4,1.7585016E4,0E0,7.3032734E3,3.0128906E3,3.6783625E4,4.6625625E3,9.065141E3,1.8621006E3,3.9069164E4,2.1882242E4,6.4693125E3,0E0,0E0,0E0,0E0,0E0,0E0,0E0,0E0,0E0,0E0,0E0,0E0,0E0,0E0,0E0,0E0,0E0,0E0,0E0,0E0,0E0,0E0,0E0,0E0,0E0,0E0,0E0,0E0,0E0,0E0,0E0,0E0,0E0,0E0,0E0,0E0,0E0,0E0,0E0,0E0,0E0,0E0,0E0,0E0,0E0,0E0,0E0,0E0,0E0,0E0,0E0,0E0,0E0,0E0,0E0,0E0,0E0],"parents":[2147483647,0,0,1,1,2,2,3,3,4,4,5,5,6,6,7,7,8,8,9,9,10,10,11,11,12,12,13,13,14,14,15,15,16,16,17,17,18,18,19,19,20,20,21,21,22,22,23,23,24,24,25,25,26,26,27,27,28,28,29,29,30,30,31,31,32,32,33,33,35,35,36,36,37,37,38,38,39,39,40,40,41,41,42,42,43,43,44,44,45,45,46,46,47,47,48,48,49,49,51,51,52,52,53,53,54,54,55,55,56,56,57,57,58,58,59,59],"right_children":[2,4,6,8,10,12,14,16,18,20,22,24,26,28,30,32,34,36,38,40,42,44,46,48,50,52,54,56,58,60,62,64,66,68,-1,70,72,74,76,78,80,82,84,86,88,90,92,94,96,98,-1,100,102,104,106,108,110,112,114,116,-1,-1,-1,-1,-1,-1,-1,-1,-1,-1,-1,-1,-1,-1,-1,-1,-1,-1,-1,-1,-1,-1,-1,-1,-1,-1,-1,-1,-1,-1,-1,-1,-1,-1,-1,-1,-1,-1,-1,-1,-1,-1,-1,-1,-1,-1,-1,-1,-1,-1,-1,-1,-1,-1,-1,-1,-1],"split_conditions":[1.3960991E0,4.9503753E-1,-5.2291113E-1,-1.1470453E0,-9.25281E-1,1.9147264E0,2.6253295E0,4.8486367E-1,4.7975603E-1,-8.347092E-1,-7.991412E-2,8.4564227E-1,-1.5164288E0,1.5963349E0,-4.0572894E-1,-8.338007E-1,1.24601126E-1,-8.9231116E-1,-2.8087655E-1,1.4414805E0,4.1423082E-1,4.2595925E0,3.552063E-1,-1.2995435E0,9.5933366E-1,4.2595925E0,-1.0609696E0,-7.991412E-2,-7.50307E-1,-3.1762388E-2,4.2995195E0,8.963625E-1,-1.5681522E0,1.260757E0,4.9761486E0,-1.2764558E0,2.8311653E0,6.988336E-1,-7.3749954E-1,6.734721E-2,-1.37967E0,-3.7859696E-1,3.7572783E-1,8.110674E-2,-7.357478E-1,8.64165E-1,-6.8194345E-2,7.480207E-2,-1.0190696E0,2.3972785E0,9.7618685E0,-2.795364E-1,-1.37967E0,2.8037312E0,-5.914084E-1,1.496217E0,4.195142E-1,4.9498877E-1,1.7807043E0,-1.6535563E0,2.0919921E0,2.2560754E0,4.4241905E-2,-2.1595855E-1,-9.428633E-1,2.8270292E0,1.0383819E0,1.9950018E0,4.7570796E0,-3.1712916E-1,-1.2866004E0,4.0896025E-2,-1.4886168E0,-8.419857E-1,-1.2595437E0,1.4482517E0,-7.9084295E-1,-1.4605973E0,-3.7588474E-1,4.754377E0,-1.103002E0,3.8335514E0,2.1853025E0,1.2559512E0,5.6469417E0,1.0570167E0,-2.1827042E-2,6.706957E-1,1.0174262E1,-6.308817E-1,1.8340234E-1,1.1742355E0,-2.2815414E-1,5.681047E0,9.9643975E-1,1.0105771E1,4.492573E0,2.1653333E0,4.494886E0,4.429441E0,2.001293E0,1.3932365E0,6.3616076E0,5.8879814E0,1.1023736E1,7.1840944E0,4.1495595E0,3.0157716E0,5.8238688E0,1.8879212E0,3.3615333E-1,3.2372224E0,9.594137E-1,-6.5707827E-1,1.026935E0,2.1125212E0,6.957948E0],"split_indices":[4,4,0,0,0,5,5,5,2,2,0,5,2,4,0,4,4,4,4,5,3,5,0,2,3,5,2,0,3,3,4,2,0,5,0,2,0,2,0,3,0,2,5,2,0,5,2,5,2,4,0,3,0,5,0,4,5,5,5,2,0,0,0,0,0,0,0,0,0,0,0,0,0,0,0,0,0,0,0,0,0,0,0,0,0,0,0,0,0,0,0,0,0,0,0,0,0,0,0,0,0,0,0,0,0,0,0,0,0,0,0,0,0,0,0,0,0],"split_type":[0,0,0,0,0,0,0,0,0,0,0,0,0,0,0,0,0,0,0,0,0,0,0,0,0,0,0,0,0,0,0,0,0,0,0,0,0,0,0,0,0,0,0,0,0,0,0,0,0,0,0,0,0,0,0,0,0,0,0,0,0,0,0,0,0,0,0,0,0,0,0,0,0,0,0,0,0,0,0,0,0,0,0,0,0,0,0,0,0,0,0,0,0,0,0,0,0,0,0,0,0,0,0,0,0,0,0,0,0,0,0,0,0,0,0,0,0],"sum_hessian":[5.97E3,5.467E3,5.03E2,4.268E3,1.199E3,2.11E2,2.92E2,1.89E2,4.079E3,1.17E2,1.082E3,1.16E2,9.5E1,2.73E2,1.9E1,1.65E2,2.4E1,2.167E3,1.912E3,1.2E1,1.05E2,6.44E2,4.38E2,5.8E1,5.8E1,3.4E1,6.1E1,3.3E1,2.4E2,1.2E1,7E0,5.7E1,1.08E2,1.7E1,7E0,6.5E2,1.517E3,1.086E3,8.26E2,8E0,4E0,7.3E1,3.2E1,6.41E2,3E0,3.23E2,1.15E2,2.1E1,3.7E1,5.5E1,3E0,1.8E1,1.6E1,3.2E1,2.9E1,2.5E1,8E0,1.19E2,1.21E2,1E1,2E0,6E0,1E0,5.2E1,5E0,9E0,9.9E1,1.4E1,3E0,2.07E2,4.43E2,1.41E3,1.07E2,3.47E2,7.39E2,8E0,8.18E2,6E0,2E0,3E0,1E0,3.1E1,4.2E1,5E0,2.7E1,4.81E2,1.6E2,1E0,2E0,1.9E2,1.33E2,8.2E1,3.3E1,9E0,1.2E1,1.2E1,2.5E1,4.4E1,1.1E1,9E0,9E0,1E0,1.5E1,9E0,2.3E1,2.2E1,7E0,2E1,5E0,3E0,5E0,2.3E1,9.6E1,9.8E1,2.3E1,2E0,8E0],"tree_param":{"num_deleted":"0","num_feature":"8","num_nodes":"117","size_leaf_vector":"1"}},{"base_weights":[1.9324546E-1,4.2972004E1,-5.6989694E0,7.578743E1,1.1630176E1,1.5014228E0,-1.8360563E1,-1.4484987E1,8.704893E1,3.6592445E1,1.3704959E0,1.1615063E1,-5.2060833E0,-1.3447779E1,-2.0712044E1,-6.913998E0,-2.6575703E1,1.1043768E2,4.2660336E1,3.2158836E1,6.0646505E0,4.171957E1,-1.2237035E0,3.4404987E1,4.803476E0,-2.3458796E0,-2.8985903E1,2.6207132E0,-1.3747841E1,-2.4976326E1,-1.8398573E1,-8.9864635E-1,9.709353E0,-2.0522116E1,-1.8921269E0,5.9826385E1,1.19447716E2,5.490926E1,-6.0164447E0,4.8115314E1,1.176236E1,5.900427E1,-7.907629E0,1.2835855E1,-7.7177467E0,4.9974895E1,1.9591648E1,8.256478E0,-1.2126597E0,1.615204E1,-5.372159E0,-3.003289E1,-6.652678E0,-9.842388E0,-1.5961831E1,-1.9419748E1,-2.6469559E1,-8.544588E0,-2.1257923E1,1.1049181E0,3.0803084E-1,-1.2941889E0,-5.339913E-1,4.1282663E0,1.8117377E0,1.4861921E0,6.1243677E0,5.3183236E0,2.308193E0,-1.1861767E0,7.6830775E-1,5.5769563E-2,2.7262402E0,-1.5183063E0,1.8340353E0,1.5963495E0,4.516353E0,-0E0,-6.7135555E-1,2.2763033E0,3.9840847E-1,-6.498289E-1,1.3868555E-1,7.466381E-1,3.0498884E0,-8.657323E-1,1.6075516E0,4.8827407E-1,-9.3408775E-1,-7.2282404E-1,5.380682E-1,-1.1306693E-1,1.7975258E0,-3.4348515E-1,6.927082E-1,-1.0338062E0,-1.5721728E0,-4.723978E-2,-8.077637E-1,-1.5790437E-1,-8.426744E-1,-9.132334E-1,-3.4411213E-1,-5.6564885E-1,-1.5293775E0,-1.1715332E0,-1.4892836E0,-8.8278E-1,7.7521004E-2,-1.014251E0,-1.6114638E0],"categories":[],"categories_nodes":[],"categories_segments":[],"categories_sizes":[],"default_left":[0,0,0,0,0,0,0,0,0,0,0,0,0,0,0,0,0,0,0,0,0,0,0,0,0,0,0,0,0,0,0,0,0,0,0,0,0,0,0,0,0,0,0,0,0,0,0,0,0,0,0,0,0,0,0,0,0,0,0,0,0,0,0,0,0,0,0,0,0,0,0,0,0,0,0,0,0,0,0,0,0,0,0,0,0,0,0,0,0,0,0,0,0,0,0,0,0,0,0,0,0,0,0,0,0,0,0,0,0,0,0],"id":12,"left_children":[1,3,5,7,9,11,13,15,17,19,21,23,25,27,29,31,33,35,37,39,-1,41,43,45,47,49,51,-1,53,55,57,-1,59,61,-1,63,65,67,69,71,73,75,77,79,81,83,85,87,89,91,93,95,97,99,101,103,105,107,109,-1,-1,-1,-1,-1,-1,-1,-1,-1,-1,-1,-1,-1,-1,-1,-1,-1,-1,-1,-1,-1,-1,-1,-1,-1,-1,-1,-1,-1,-1,-1,-1,-1,-1,-1,-1,-1,-1,-1,-1,-1,-1,-1,-1,-1,-1,-1,-1,-1,-1,-1,-1],"loss_changes":[1.5053421E6,7.426334E5,4.7858762E5,3.60194E5,9.4926805E4,2.2711831E5,2.1671375E4,3.4443135E3,3.2112875E5,3.6503047E4,2.7725361E4,2.07035E5,1.3681514E5,1.2915023E4,1.21739375E4,4.9625176E3,1.8809766E2,8.615625E4,6.596545E4,3.3221594E4,0E0,1.4242342E4,2.2828486E4,6.975853E4,2.1393227E4,1.00727805E5,4.8141562E3,0E0,5.152078E3,3.1655625E3,2.3371875E4,0E0,3.192202E2,3.202544E2,0E0,1.4592266E4,4.3389E4,3.4538406E4,9.081239E3,1.7355781E4,5.0459457E4,7.171508E3,2.282089E2,1.2154675E4,9.516702E3,5.6566656E4,7.427125E4,2.6758527E4,5.9786027E4,9.234786E4,4.4601035E4,2.0166094E3,5.642733E2,1.0518094E4,8.0453906E3,8.575008E3,2.7860156E3,1.7518871E4,6.2105E3,0E0,0E0,0E0,0E0,0E0,0E0,0E0,0E0,0E0,0E0,0E0,0E0,0E0,0E0,0E0,0E0,0E0,0E0,0E0,0E0,0E0,0E0,0E0,0E0,0E0,0E0,0E0,0E0,0E0,0E0,0E0,0E0,0E0,0E0,0E0,0E0,0E0,0E0,0E0,0E0,0E0,0E0,0E0,0E0,0E0,0E0,0E0,0E0,0E0,0E0,0E0,0E0],"parents":[2147483647,0,0,1,1,2,2,3,3,4,4,5,5,6,6,7,7,8,8,9,9,10,10,11,11,12,12,13,13,14,14,15,15,16,16,17,17,18,18,19,19,21,21,22,22,23,23,24,24,25,25,26,26,28,28,29,29,30,30,32,32,33,33,35,35,36,36,37,37,38,38,39,39,40,40,41,41,42,42,43,43,44,44,45,45,46,46,47,47,48,48,49,49,50,50,51,51,52,52,53,53,54,54,55,55,56,56,57,57,58,58],"right_children":[2,4,6,8,10,12,14,16,18,20,22,24,26,28,30,32,34,36,38,40,-1,42,44,46,48,50,52,-1,54,56,58,-1,60,62,-1,64,66,68,70,72,74,76,78,80,82,84,86,88,90,92,94,96,98,100,102,104,106,108,110,-1,-1,-1,-1,-1,-1,-1,-1,-1,-1,-1,-1,-1,-1,-1,-1,-1,-1,-1,-1,-1,-1,-1,-1,-1,-1,-1,-1,-1,-1,-1,-1,-1,-1,-1,-1,-1,-1,-1,-1,-1,-1,-1,-1,-1,-1,-1,-1,-1,-1,-1,-1],"split_conditions":[-5.914084E-1,-2.22113E-1,4.7975603E-1,-1.6422935E0,1.2420396E-1,-4.0572894E-1,6.988336E-1,-3.1080875E0,-7.8556854E-1,1.6531008E0,-3.1946146E0,-4.8443782E-1,2.8311653E0,-5.747673E-1,9.271126E-1,-4.9217625E0,-7.357478E-1,-2.0414314E0,-9.699491E-1,1.0025918E0,6.0646505E0,-1.1470453E0,-1.2815752E0,7.054083E-2,5.8767265E-1,-1.3611109E0,1.1608646E0,2.6207132E0,-4.0572894E-1,2.898984E-1,9.053411E-1,-8.9864635E-1,-3.8084176E0,-1.1218209E0,-1.8921269E0,-2.7256122E0,-3.1946146E0,-7.308175E-1,-1.6177025E0,-2.2008832E0,-1.14369944E-1,-1.1918886E0,-7.3329544E-1,-1.5681522E0,9.498342E-1,-1.2874532E0,-1.0190696E0,1.1608646E0,8.6022407E-1,3.8708645E-1,1.2318851E0,-3.0003445E0,-2.5155008E0,5.8767265E-1,9.5933366E-1,5.8767265E-1,7.8413016E-1,1.0212159E0,1.4350778E0,1.1049181E0,3.0803084E-1,-1.2941889E0,-5.339913E-1,4.1282663E0,1.8117377E0,1.4861921E0,6.1243677E0,5.3183236E0,2.308193E0,-1.1861767E0,7.6830775E-1,5.5769563E-2,2.7262402E0,-1.5183063E0,1.8340353E0,1.5963495E0,4.516353E0,-0E0,-6.7135555E-1,2.2763033E0,3.9840847E-1,-6.498289E-1,1.3868555E-1,7.466381E-1,3.0498884E0,-8.657323E-1,1.6075516E0,4.8827407E-1,-9.3408775E-1,-7.2282404E-1,5.380682E-1,-1.1306693E-1,1.7975258E0,-3.4348515E-1,6.927082E-1,-1.0338062E0,-1.5721728E0,-4.723978E-2,-8.077637E-1,-1.5790437E-1,-8.426744E-1,-9.132334E-1,-3.4411213E-1,-5.6564885E-1,-1.5293775E0,-1.1715332E0,-1.4892836E0,-8.8278E-1,7.7521004E-2,-1.014251E0,-1.6114638E0],"split_indices":[0,2,2,3,2,0,2,2,6,3,6,6,0,0,6,2,0,2,0,7,0,0,0,7,3,2,7,0,0,6,2,0,2,0,0,7,6,6,7,6,2,0,0,0,7,6,2,7,3,7,3,2,2,3,3,3,2,6,2,0,0,0,0,0,0,0,0,0,0,0,0,0,0,0,0,0,0,0,0,0,0,0,0,0,0,0,0,0,0,0,0,0,0,0,0,0,0,0,0,0,0,0,0,0,0,0,0,0,0,0,0],"split_type":[0,0,0,0,0,0,0,0,0,0,0,0,0,0,0,0,0,0,0,0,0,0,0,0,0,0,0,0,0,0,0,0,0,0,0,0,0,0,0,0,0,0,0,0,0,0,0,0,0,0,0,0,0,0,0,0,0,0,0,0,0,0,0,0,0,0,0,0,0,0,0,0,0,0,0,0,0,0,0,0,0,0,0,0,0,0,0,0,0,0,0,0,0,0,0,0,0,0,0,0,0,0,0,0,0,0,0,0,0,0,0],"sum_hessian":[5.97E3,7.22E2,5.248E3,3.52E2,3.7E2,3.346E3,1.902E3,3.9E1,3.13E2,1.07E2,2.63E2,1.334E3,2.012E3,6.18E2,1.284E3,2.5E1,1.4E1,2.04E2,1.09E2,1.03E2,4E0,1.5E1,2.48E2,3.06E2,1.028E3,1.797E3,2.15E2,2E0,6.16E2,4.48E2,8.36E2,1.5E1,1E1,1.1E1,3E0,3.2E1,1.72E2,8.7E1,2.2E1,5.7E1,4.6E1,1.1E1,4E0,7.8E1,1.7E2,1.48E2,1.58E2,6.53E2,3.75E2,2.52E2,1.545E3,2.05E2,1E1,2.25E2,3.91E2,9.8E1,3.5E2,1.89E2,6.47E2,1E0,9E0,6E0,5E0,1.5E1,1.7E1,6E0,1.66E2,1.1E1,7.6E1,1.2E1,1E1,7E0,5E1,1.7E1,2.9E1,7E0,4E0,2E0,2E0,9E0,6.9E1,1.13E2,5.7E1,3.6E1,1.12E2,4E1,1.18E2,6.19E2,3.4E1,1.78E2,1.97E2,1.31E2,1.21E2,1.434E3,1.11E2,2.9E1,1.76E2,7E0,3E0,1.16E2,1.09E2,3.11E2,8E1,5.8E1,4E1,1.87E2,1.63E2,9.9E1,9E1,5.97E2,5E1],"tree_param":{"num_deleted":"0","num_feature":"8","num_nodes":"111","size_leaf_vector":"1"}},{"base_weights":[1.8842578E-1,4.0871544E1,-5.4151335E0,7.204821E1,1.1094635E1,1.4270482E0,-1.7446856E1,-1.3842137E1,8.276338E1,3.4848583E1,1.3312974E0,1.6093935E1,-2.7781496E0,-1.2774964E1,-1.9683008E1,-6.54467E0,-2.5501604E1,1.0498263E2,4.0593307E1,3.058116E1,5.8220644E0,3.3906982E1,-1.6193049E0,4.288965E1,7.804724E0,-5.3465754E-1,-2.7553324E1,2.5333562E0,-1.306435E1,-2.3738436E1,-1.7482803E1,-8.5652226E-1,9.356882E0,-1.9652523E1,-1.8211721E0,5.7016582E1,1.1351961E2,5.2251034E1,-5.731616E0,4.5758373E1,1.11798935E1,6.043096E1,-3.8648908E0,1.10162115E1,-7.552745E0,1.0484755E1,5.3604275E1,5.5167675E0,2.1369286E1,-6.735721E0,5.952946E0,-2.8544138E1,-6.402317E0,-1.8883429E1,-1.1677331E1,-1.865048E1,-2.5215239E1,-5.6168766E0,-1.9675182E1,1.0772952E0,2.9416952E-1,-1.2387235E0,-5.117416E-1,3.934754E0,1.7261835E0,1.4224981E0,5.8199825E0,5.0745673E0,2.1942825E0,-2.4021368E0,1.4835943E-1,5.3329587E-2,2.592601E0,-1.4466085E0,1.7453902E0,1.950181E0,4.3356996E0,-4.407842E-1,2.7576095E-1,1.2445065E0,1.3333487E-2,-6.4574575E-1,1.3187075E-1,2.4599032E0,-4.276726E-1,6.5254683E0,2.2763026E0,5.5696404E-1,-4.9844453E-1,6.142073E-1,2.9007614E0,-1.3892879E-1,-6.4393884E-1,1.539039E0,1.630493E-1,-9.83839E-1,-1.4940082E0,-4.517298E-2,-7.774726E-1,9.738731E-3,-9.784668E-1,2.8812525E-1,-6.8560755E-1,-5.3784585E-1,-1.4070662E0,-1.1350644E0,-1.4620459E0,-7.488141E-1,4.5254922E-1,-9.3952435E-1,-1.5324705E0],"categories":[],"categories_nodes":[],"categories_segments":[],"categories_sizes":[],"default_left":[0,0,0,0,0,0,0,0,0,0,0,0,0,0,0,0,0,0,0,0,0,0,0,0,0,0,0,0,0,0,0,0,0,0,0,0,0,0,0,0,0,0,0,0,0,0,0,0,0,0,0,0,0,0,0,0,0,0,0,0,0,0,0,0,0,0,0,0,0,0,0,0,0,0,0,0,0,0,0,0,0,0,0,0,0,0,0,0,0,0,0,0,0,0,0,0,0,0,0,0,0,0,0,0,0,0,0,0,0,0,0],"id":13,"left_children":[1,3,5,7,9,11,13,15,17,19,21,23,25,27,29,31,33,35,37,39,-1,41,43,45,47,49,51,-1,53,55,57,-1,59,61,-1,63,65,67,69,71,73,75,77,79,81,83,85,87,89,91,93,95,97,99,101,103,105,107,109,-1,-1,-1,-1,-1,-1,-1,-1,-1,-1,-1,-1,-1,-1,-1,-1,-1,-1,-1,-1,-1,-1,-1,-1,-1,-1,-1,-1,-1,-1,-1,-1,-1,-1,-1,-1,-1,-1,-1,-1,-1,-1,-1,-1,-1,-1,-1,-1,-1,-1,-1,-1],"loss_changes":[1.3614674E6,6.703106E5,4.3215553E5,3.2609125E5,8.595895E4,2.064915E5,1.9596875E4,3.204438E3,2.8980675E5,3.3896656E4,2.5462318E4,1.6531261E5,1.445839E5,1.1988719E4,1.10095625E4,4.5446484E3,1.8635156E2,7.73015E4,5.9750734E4,3.0055031E4,0E0,2.2331053E4,1.8297955E4,6.0482188E4,1.7576281E4,9.607E4,4.308953E3,0E0,4.728836E3,2.8595938E3,2.1638422E4,0E0,3.1153076E2,2.90271E2,0E0,1.3261148E4,3.89295E4,3.1649062E4,8.652919E3,1.5687242E4,4.574938E4,3.8134062E3,5.1631067E2,1.1600989E4,9.114806E3,3.3627895E4,7.588828E4,4.2775688E4,2.6517578E4,2.96298E4,7.786265E4,1.8029844E3,5.227855E2,1.5542383E3,1.7865914E4,7.524625E3,2.7757656E3,1.8262762E4,6.2290938E3,0E0,0E0,0E0,0E0,0E0,0E0,0E0,0E0,0E0,0E0,0E0,0E0,0E0,0E0,0E0,0E0,0E0,0E0,0E0,0E0,0E0,0E0,0E0,0E0,0E0,0E0,0E0,0E0,0E0,0E0,0E0,0E0,0E0,0E0,0E0,0E0,0E0,0E0,0E0,0E0,0E0,0E0,0E0,0E0,0E0,0E0,0E0,0E0,0E0,0E0,0E0,0E0],"parents":[2147483647,0,0,1,1,2,2,3,3,4,4,5,5,6,6,7,7,8,8,9,9,10,10,11,11,12,12,13,13,14,14,15,15,16,16,17,17,18,18,19,19,21,21,22,22,23,23,24,24,25,25,26,26,28,28,29,29,30,30,32,32,33,33,35,35,36,36,37,37,38,38,39,39,40,40,41,41,42,42,43,43,44,44,45,45,46,46,47,47,48,48,49,49,50,50,51,51,52,52,53,53,54,54,55,55,56,56,57,57,58,58],"right_children":[2,4,6,8,10,12,14,16,18,20,22,24,26,28,30,32,34,36,38,40,-1,42,44,46,48,50,52,-1,54,56,58,-1,60,62,-1,64,66,68,70,72,74,76,78,80,82,84,86,88,90,92,94,96,98,100,102,104,106,108,110,-1,-1,-1,-1,-1,-1,-1,-1,-1,-1,-1,-1,-1,-1,-1,-1,-1,-1,-1,-1,-1,-1,-1,-1,-1,-1,-1,-1,-1,-1,-1,-1,-1,-1,-1,-1,-1,-1,-1,-1,-1,-1,-1,-1,-1,-1,-1,-1,-1,-1,-1,-1],"split_conditions":[-5.914084E-1,-2.22113E-1,4.7975603E-1,-1.6422935E0,1.2420396E-1,-4.75096E-1,6.988336E-1,-3.1080875E0,-7.8556854E-1,1.6531008E0,-2.4417877E0,-4.8443782E-1,2.8311653E0,-5.747673E-1,9.271126E-1,-4.9217625E0,-7.357478E-1,-2.0414314E0,-9.699491E-1,1.0025918E0,5.8220644E0,-1.1470453E0,-1.2815752E0,-1.2874532E0,1.3309946E0,3.8708645E-1,1.1608646E0,2.5333562E0,-2.2998159E-1,4.7541645E-1,8.67631E-1,-8.5652226E-1,-3.8084176E0,-1.1218209E0,-1.8211721E0,-2.7256122E0,-3.1946146E0,-7.308175E-1,-2.215622E0,-2.2008832E0,-1.14369944E-1,-1.1918886E0,-2.0221775E0,5.37219E-1,9.498342E-1,-1.8395262E0,-1.1619819E0,5.8767265E-1,1.0571257E-1,3.1786326E-2,-1.4534621E0,-3.0003445E0,-2.5155008E0,-1.4418437E0,-1.0609459E-1,5.8767265E-1,8.245338E-1,1.0212159E0,1.4350778E0,1.0772952E0,2.9416952E-1,-1.2387235E0,-5.117416E-1,3.934754E0,1.7261835E0,1.4224981E0,5.8199825E0,5.0745673E0,2.1942825E0,-2.4021368E0,1.4835943E-1,5.3329587E-2,2.592601E0,-1.4466085E0,1.7453902E0,1.950181E0,4.3356996E0,-4.407842E-1,2.7576095E-1,1.2445065E0,1.3333487E-2,-6.4574575E-1,1.3187075E-1,2.4599032E0,-4.276726E-1,6.5254683E0,2.2763026E0,5.5696404E-1,-4.9844453E-1,6.142073E-1,2.9007614E0,-1.3892879E-1,-6.4393884E-1,1.539039E0,1.630493E-1,-9.83839E-1,-1.4940082E0,-4.517298E-2,-7.774726E-1,9.738731E-3,-9.784668E-1,2.8812525E-1,-6.8560755E-1,-5.3784585E-1,-1.4070662E0,-1.1350644E0,-1.4620459E0,-7.488141E-1,4.5254922E-1,-9.3952435E-1,-1.5324705E0],"split_indices":[0,2,2,3,2,0,2,2,6,3,6,6,0,0,6,2,0,2,0,7,0,0,0,6,3,7,7,0,3,6,2,0,2,0,0,7,6,6,7,6,2,0,7,2,7,6,6,3,7,6,2,2,2,7,3,3,2,6,2,0,0,0,0,0,0,0,0,0,0,0,0,0,0,0,0,0,0,0,0,0,0,0,0,0,0,0,0,0,0,0,0,0,0,0,0,0,0,0,0,0,0,0,0,0,0,0,0,0,0,0,0],"split_type":[0,0,0,0,0,0,0,0,0,0,0,0,0,0,0,0,0,0,0,0,0,0,0,0,0,0,0,0,0,0,0,0,0,0,0,0,0,0,0,0,0,0,0,0,0,0,0,0,0,0,0,0,0,0,0,0,0,0,0,0,0,0,0,0,0,0,0,0,0,0,0,0,0,0,0,0,0,0,0,0,0,0,0,0,0,0,0,0,0,0,0,0,0,0,0,0,0,0,0,0,0,0,0,0,0,0,0,0,0,0,0],"sum_hessian":[5.97E3,7.22E2,5.248E3,3.52E2,3.7E2,3.346E3,1.902E3,3.9E1,3.13E2,1.07E2,2.63E2,7.45E2,2.601E3,6.18E2,1.284E3,2.5E1,1.4E1,2.04E2,1.09E2,1.03E2,4E0,2.1E1,2.42E2,1.75E2,5.7E2,2.386E3,2.15E2,2E0,6.16E2,4.48E2,8.36E2,1.5E1,1E1,1.1E1,3E0,3.2E1,1.72E2,8.7E1,2.2E1,5.7E1,4.6E1,1.2E1,9E0,7.7E1,1.65E2,4.4E1,1.31E2,4.89E2,8.1E1,1.22E3,1.166E3,2.05E2,1E1,1.16E2,5E2,1.04E2,3.44E2,1.31E2,7.05E2,1E0,9E0,6E0,5E0,1.5E1,1.7E1,6E0,1.66E2,1.1E1,7.6E1,3E0,1.9E1,7E0,5E1,1.7E1,2.9E1,8E0,4E0,6E0,3E0,3.3E1,4.4E1,1.08E2,5.7E1,1.4E1,3E1,1.1E1,1.2E2,3.59E2,1.3E2,6.6E1,1.5E1,7.43E2,4.77E2,1.13E2,1.053E3,2.9E1,1.76E2,7E0,3E0,4E0,1.12E2,5.2E1,4.48E2,5.8E1,4.6E1,2.16E2,1.28E2,8E1,5.1E1,6.55E2,5E1],"tree_param":{"num_deleted":"0","num_feature":"8","num_nodes":"111","size_leaf_vector":"1"}},{"base_weights":[1.8513922E-1,-4.7005205E0,5.3192284E1,-9.870011E0,1.3693026E1,8.412999E1,4.9495206E0,-1.9283936E1,-6.2925534E0,3.5607967E1,5.0574603E0,4.4204384E1,9.36455E1,4.617E1,-4.5968676E-1,-5.264656E0,-2.1897371E1,9.307738E-1,-1.4186284E1,2.8847776E1,6.997244E1,-5.4361506E0,1.03889E1,2.2378614E1,6.325341E1,7.905903E1,1.2541165E2,5.4138115E1,6.4571624E0,3.6398945E0,-3.093945E1,-2.195966E1,2.6136192E1,-2.367676E1,-1.8514128E1,-7.222669E0,9.392368E0,-4.5349446E-1,-1.5519772E1,-4.494894E0,3.323588E1,-9.863028E0,8.184143E1,3.0638325E1,-7.10114E0,1.3266185E1,-2.3760169E0,-1.4747694E0,3.153213E1,8.117622E0,3.4101612E1,1.0992216E2,6.1098915E1,1.5016196E2,1.0782477E2,1.0684989E1,2.9281447E0,-1.5150096E-1,7.062645E-1,-2.3429327E0,4.0232704E1,-2.1111042E1,-3.528685E1,-6.774873E-1,-1.2795466E0,1.9388686E-1,1.9104605E0,-3.430582E-1,-1.222782E0,1.0905317E-1,-9.5066833E-1,-7.397409E-1,6.817197E-2,1.5473949E0,2.1195579E-1,-3.4937286E-1,1.1479901E0,-4.4904777E-1,-8.3452696E-1,-1.2520326E0,7.5517964E-1,1.1652102E1,1.5753702E0,2.1747215E-1,-1.2706431E0,2.3440673E0,4.5470443E0,2.148853E0,8.7147427E-1,-1.5015934E-1,-9.8789895E-1,7.8227155E-2,8.2238275E-1,1.1984771E-1,-2.0023685E0,-7.7922285E-1,2.177005E0,9.3576205E-1,3.0487092E0,6.2920527E0,2.5793428E0,1.6358576E0,3.9275186E0,9.440317E0,5.3450255E0,4.2981195E0,7.305719E0,1.2520555E0,-4.256814E-1,-1.4435567E0,6.0267575E-2,-1.3285466E-1,2.498347E0,3.8340035E-1,-1.2895963E0,-1.9342728E0,-8.8593096E-1],"categories":[],"categories_nodes":[],"categories_segments":[],"categories_sizes":[],"default_left":[0,0,0,0,0,0,0,0,0,0,0,0,0,0,0,0,0,0,0,0,0,0,0,0,0,0,0,0,0,0,0,0,0,0,0,0,0,0,0,0,0,0,0,0,0,0,0,0,0,0,0,0,0,0,0,0,0,0,0,0,0,0,0,0,0,0,0,0,0,0,0,0,0,0,0,0,0,0,0,0,0,0,0,0,0,0,0,0,0,0,0,0,0,0,0,0,0,0,0,0,0,0,0,0,0,0,0,0,0,0,0,0,0,0,0,0,0],"id":14,"left_children":[1,3,5,7,9,11,13,15,17,19,21,23,25,27,29,31,33,35,37,39,41,43,45,47,49,51,53,55,57,59,61,63,65,67,69,71,73,75,77,79,81,83,85,87,89,91,93,-1,95,-1,97,99,101,103,105,107,-1,-1,-1,109,111,113,115,-1,-1,-1,-1,-1,-1,-1,-1,-1,-1,-1,-1,-1,-1,-1,-1,-1,-1,-1,-1,-1,-1,-1,-1,-1,-1,-1,-1,-1,-1,-1,-1,-1,-1,-1,-1,-1,-1,-1,-1,-1,-1,-1,-1,-1,-1,-1,-1,-1,-1,-1,-1,-1,-1],"loss_changes":[1.5466375E6,5.200575E5,7.5172475E5,1.436241E5,2.2687675E5,1.1235575E5,4.4215016E4,4.290778E4,1.7650025E5,7.663584E4,4.828692E4,2.3860188E4,1.043295E5,6.867867E3,2.2131865E4,9.80779E4,5.479375E3,1.1162865E5,2.7061219E4,4.187686E4,5.2995344E4,1.7672543E4,2.1051008E4,1.5176972E4,8.671235E4,8.845325E4,1.663225E4,2.9581484E3,4.1763977E2,3.4284992E4,9.594922E1,3.3398281E3,1.727698E4,8.2486875E3,3.6331094E3,5.3606203E4,8.803201E4,2.0338033E4,1.0143969E4,1.4078776E4,7.942378E4,1.8996077E3,1.0868375E4,1.3092695E3,1.4388831E4,1.734193E4,1.9192896E4,0E0,1.5416639E4,0E0,9.52942E3,5.0906188E4,5.2297438E4,2.8003312E4,2.73885E4,1.0565713E3,0E0,0E0,0E0,1.276996E4,9.365066E3,1.4282988E3,3.434082E1,0E0,0E0,0E0,0E0,0E0,0E0,0E0,0E0,0E0,0E0,0E0,0E0,0E0,0E0,0E0,0E0,0E0,0E0,0E0,0E0,0E0,0E0,0E0,0E0,0E0,0E0,0E0,0E0,0E0,0E0,0E0,0E0,0E0,0E0,0E0,0E0,0E0,0E0,0E0,0E0,0E0,0E0,0E0,0E0,0E0,0E0,0E0,0E0,0E0,0E0,0E0,0E0,0E0,0E0],"parents":[2147483647,0,0,1,1,2,2,3,3,4,4,5,5,6,6,7,7,8,8,9,9,10,10,11,11,12,12,13,13,14,14,15,15,16,16,17,17,18,18,19,19,20,20,21,21,22,22,23,23,24,24,25,25,26,26,27,27,28,28,29,29,30,30,31,31,32,32,33,33,34,34,35,35,36,36,37,37,38,38,39,39,40,40,41,41,42,42,43,43,44,44,45,45,46,46,48,48,50,50,51,51,52,52,53,53,54,54,55,55,59,59,60,60,61,61,62,62],"right_children":[2,4,6,8,10,12,14,16,18,20,22,24,26,28,30,32,34,36,38,40,42,44,46,48,50,52,54,56,58,60,62,64,66,68,70,72,74,76,78,80,82,84,86,88,90,92,94,-1,96,-1,98,100,102,104,106,108,-1,-1,-1,110,112,114,116,-1,-1,-1,-1,-1,-1,-1,-1,-1,-1,-1,-1,-1,-1,-1,-1,-1,-1,-1,-1,-1,-1,-1,-1,-1,-1,-1,-1,-1,-1,-1,-1,-1,-1,-1,-1,-1,-1,-1,-1,-1,-1,-1,-1,-1,-1,-1,-1,-1,-1,-1,-1,-1,-1],"split_conditions":[1.3960991E0,4.9503753E-1,-8.209231E-1,-8.9231116E-1,-4.8892805E-1,-2.1489034E0,1.5963349E0,-1.3611109E0,4.7975603E-1,6.1245006E-1,-4.9220693E-1,2.3972785E0,4.0467232E-1,-5.4021156E-1,-1.30872E-1,-1.7253851E0,3.8708645E-1,-3.1762388E-2,-1.56933E-1,-9.209036E-1,-8.347092E-1,-6.8386894E-1,1.06246784E-1,-2.5155008E0,2.4544888E0,-2.0221775E0,-1.0609696E0,-1.3890861E0,1.4856782E0,6.1570275E-1,1.6821504E0,-3.1080875E0,-1.7661804E0,-1.7075573E0,-1.2533679E0,8.44319E-1,-1.56933E-1,1.3309946E0,5.936558E-1,7.054083E-2,-1.7661804E0,7.054083E-2,-5.042972E-1,-8.778064E-1,1.167258E0,-5.545773E-1,1.0256627E0,-1.4747694E0,-5.625504E-1,8.117622E0,-2.8926015E0,-1.1529181E0,1.7765472E0,2.1151278E0,-8.014068E-1,-1.30872E-1,2.9281447E0,-1.5150096E-1,7.062645E-1,-2.235369E0,-9.592123E-1,-8.014068E-1,1.7765472E0,-6.774873E-1,-1.2795466E0,1.9388686E-1,1.9104605E0,-3.430582E-1,-1.222782E0,1.0905317E-1,-9.5066833E-1,-7.397409E-1,6.817197E-2,1.5473949E0,2.1195579E-1,-3.4937286E-1,1.1479901E0,-4.4904777E-1,-8.3452696E-1,-1.2520326E0,7.5517964E-1,1.1652102E1,1.5753702E0,2.1747215E-1,-1.2706431E0,2.3440673E0,4.5470443E0,2.148853E0,8.7147427E-1,-1.5015934E-1,-9.8789895E-1,7.8227155E-2,8.2238275E-1,1.1984771E-1,-2.0023685E0,-7.7922285E-1,2.177005E0,9.3576205E-1,3.0487092E0,6.2920527E0,2.5793428E0,1.6358576E0,3.9275186E0,9.440317E0,5.3450255E0,4.2981195E0,7.305719E0,1.2520555E0,-4.256814E-1,-1.4435567E0,6.0267575E-2,-1.3285466E-1,2.498347E0,3.8340035E-1,-1.2895963E0,-1.9342728E0,-8.8593096E-1],"split_indices":[4,4,1,4,1,1,4,2,2,3,7,4,7,2,3,2,7,3,1,2,2,2,2,2,4,7,2,7,4,7,4,2,3,4,2,7,1,3,2,7,3,7,2,2,4,2,4,0,7,0,2,1,4,4,2,3,0,0,0,2,2,2,4,0,0,0,0,0,0,0,0,0,0,0,0,0,0,0,0,0,0,0,0,0,0,0,0,0,0,0,0,0,0,0,0,0,0,0,0,0,0,0,0,0,0,0,0,0,0,0,0,0,0,0,0,0,0],"split_type":[0,0,0,0,0,0,0,0,0,0,0,0,0,0,0,0,0,0,0,0,0,0,0,0,0,0,0,0,0,0,0,0,0,0,0,0,0,0,0,0,0,0,0,0,0,0,0,0,0,0,0,0,0,0,0,0,0,0,0,0,0,0,0,0,0,0,0,0,0,0,0,0,0,0,0,0,0,0,0,0,0,0,0,0,0,0,0,0,0,0,0,0,0,0,0,0,0,0,0,0,0,0,0,0,0,0,0,0,0,0,0,0,0,0,0,0,0],"sum_hessian":[5.97E3,5.467E3,5.03E2,4.268E3,1.199E3,3.06E2,1.97E2,1.174E3,3.094E3,3.38E2,8.61E2,6E1,2.46E2,2.2E1,1.75E2,1.85E2,9.89E2,1.616E3,1.478E3,2.84E2,5.4E1,2.9E2,5.71E2,2.9E1,3.1E1,1.71E2,7.5E1,1.8E1,4E0,1.55E2,2E1,1.21E2,6.4E1,6.44E2,3.45E2,8.23E2,7.93E2,1.31E2,1.347E3,3.3E1,2.51E2,7E0,4.7E1,1.2E1,2.78E2,4.66E2,1.05E2,4E0,2.5E1,6E0,2.5E1,6.1E1,1.1E2,2.8E1,4.7E1,2E0,1.6E1,2E0,2E0,1.34E2,2.1E1,8E0,1.2E1,3.8E1,8.3E1,2.3E1,4.1E1,2.9E1,6.15E2,8E0,3.37E2,4.37E2,3.86E2,1.52E2,6.41E2,1.03E2,2.8E1,2.06E2,1.141E3,1.6E1,1.7E1,1E0,2.5E2,4E0,3E0,1.1E1,3.6E1,5E0,7E0,2.11E2,6.7E1,1E2,3.66E2,9.4E1,1.1E1,5E0,2E1,1.7E1,8E0,4.7E1,1.4E1,4.3E1,6.7E1,1.3E1,1.5E1,3.2E1,1.5E1,1E0,1E0,1.5E1,1.19E2,4E0,1.7E1,1E0,7E0,9E0,3E0],"tree_param":{"num_deleted":"0","num_feature":"8","num_nodes":"117","size_leaf_vector":"1"}},{"base_weights":[1.8807904E-1,-4.462191E0,5.064143E1,-9.37691E0,1.3024808E1,8.00971E1,4.7094464E0,-1.8321705E1,-5.9777145E0,3.3183456E1,4.5153365E0,6.1205833E1,1.21599655E2,4.404886E1,-4.5257613E-1,-2.0753935E1,-7.664736E0,3.3708036E-2,-1.2428707E1,3.0703272E1,8.628847E0,4.0556973E1,3.045608E0,1.0399101E2,4.9766106E1,1.2851204E2,1.6199368E1,1.933456E1,2.6795228E0,-2.7781918E0,2.7974231E0,-2.1727201E1,-1.1798345E1,-2.2245222E1,1.4447416E1,-1.6465368E1,2.0419638E0,-7.586895E0,-1.4924537E1,7.508775E0,3.8549843E1,6.85145E1,3.0356308E1,-6.3723364E0,8.088346E0,8.658261E1,8.569051E0,1.2141752E1,6.3617546E1,1.3986371E2,5.7637836E1,1.2335459E0,-1.4931704E-1,1.8972733E0,6.640014E0,-1.8230879E1,6.0277233E0,-1.162388E0,-8.449004E-1,-7.9951054E-1,-1.0049496E-1,-6.569665E-1,-1.1961306E0,1.3153809E0,-7.4039894E-1,-1.3384272E0,-5.9231204E-1,-2.0582199E-1,4.7831106E-1,-4.5839086E-1,1.9370158E0,2.1661536E-1,-7.9157966E-1,7.6323456E-1,-4.619404E-2,3.717072E0,1.6349707E0,-9.8554105E-2,4.625244E0,-2.0315282E0,1.9003245E0,9.240303E-1,-4.37069E-1,2.9087275E-1,1.0388442E0,6.2345905E0,3.1631262E0,6.329322E0,-5.512864E-1,2.5786636E0,5.3496575E0,